{"gradients/dense_id.bias": {"_type": "histogram", "values": [1.0, 0.0, 0.0, 0.0, 0.0, 0.0, 0.0, 0.0, 0.0, 0.0, 0.0, 0.0, 0.0, 0.0, 0.0, 0.0, 0.0, 0.0, 1.0, 0.0, 0.0, 0.0, 1.0, 0.0, 0.0, 0.0, 1.0, 0.0, 0.0, 0.0, 0.0, 0.0, 0.0, 0.0, 0.0, 0.0, 0.0, 0.0, 1.0, 0.0, 0.0, 1.0, 0.0, 2.0, 0.0, 0.0, 0.0, 0.0, 0.0, 0.0, 0.0, 0.0, 0.0, 0.0, 0.0, 0.0, 0.0, 0.0, 1.0, 0.0, 0.0, 0.0, 0.0, 1.0], "bins": [-0.04643453285098076, -0.04513411223888397, -0.043833695352077484, -0.0425332747399807, -0.04123285412788391, -0.039932433515787125, -0.03863201290369034, -0.03733159601688385, -0.036031175404787064, -0.03473075479269028, -0.03343033790588379, -0.032129917293787, -0.030829496681690216, -0.02952907606959343, -0.028228657320141792, -0.026928238570690155, -0.02562781795859337, -0.024327397346496582, -0.023026978597044945, -0.021726559847593307, -0.02042613923549652, -0.019125718623399734, -0.017825299873948097, -0.01652488112449646, -0.015224460512399673, -0.013924039900302887, -0.0126236192882061, -0.011323202401399612, -0.010022781789302826, -0.00872236117720604, -0.007421944290399551, -0.006121523678302765, -0.00482109934091568, -0.0035206787288188934, -0.002220258116722107, -0.0009198412299156189, 0.0003805793821811676, 0.001680999994277954, 0.002981416881084442, 0.004281837493181229, 0.005582258105278015, 0.006882678717374802, 0.008183097466826439, 0.009483516216278076, 0.010783936828374863, 0.01208435744047165, 0.013384776189923286, 0.014685194939374924, 0.01598561555147171, 0.017286036163568497, 0.018586454913020134, 0.01988687366247177, 0.021187294274568558, 0.022487714886665344, 0.02378813363611698, 0.02508855238556862, 0.026388972997665405, 0.027689393609762192, 0.02898981235921383, 0.030290231108665466, 0.03159065172076225, 0.03289107233285904, 0.03419148921966553, 0.035491909831762314, 0.0367923304438591]}, "_timestamp": 1746946708.401377, "gradients/dense_id.weight": {"_type": "histogram", "values": [1.0, 1.0, 0.0, 0.0, 0.0, 0.0, 1.0, 0.0, 0.0, 1.0, 0.0, 2.0, 3.0, 0.0, 3.0, 1.0, 2.0, 1.0, 1.0, 0.0, 2.0, 2.0, 1.0, 1.0, 2.0, 5.0, 1.0, 1.0, 6.0, 3.0, 8.0, 6.0, 7.0, 6.0, 5.0, 10.0, 23.0, 58.0, 43.0, 35.0, 17.0, 11.0, 14.0, 9.0, 1.0, 2.0, 2.0, 2.0, 2.0, 2.0, 3.0, 1.0, 2.0, 1.0, 1.0, 2.0, 1.0, 2.0, 0.0, 1.0, 0.0, 0.0, 0.0, 2.0], "bins": [-0.19224388897418976, -0.18703262507915497, -0.18182136118412018, -0.17661011219024658, -0.1713988482952118, -0.166187584400177, -0.1609763205051422, -0.15576505661010742, -0.15055379271507263, -0.14534254372119904, -0.14013127982616425, -0.13492001593112946, -0.12970875203609467, -0.12449749559164047, -0.11928623169660568, -0.11407497525215149, -0.1088637113571167, -0.10365244746208191, -0.09844119101762772, -0.09322992712259293, -0.08801867067813873, -0.08280740678310394, -0.07759614288806915, -0.07238488644361496, -0.06717361509799957, -0.06196236610412598, -0.056751102209091187, -0.051539838314056396, -0.046328574419021606, -0.041117310523986816, -0.03590606153011322, -0.03069479763507843, -0.025483548641204834, -0.020272284746170044, -0.015061020851135254, -0.009849771857261658, -0.004638507962226868, 0.0005727559328079224, 0.005784019827842712, 0.010995283722877502, 0.0162065327167511, 0.021417804062366486, 0.02662906050682068, 0.03184032440185547, 0.03705158829689026, 0.04226284474134445, 0.04747410863637924, 0.052685365080833435, 0.057896628975868225, 0.06310789287090302, 0.06831914931535721, 0.073530413210392, 0.07874166965484619, 0.08395293354988098, 0.08916419744491577, 0.09437546133995056, 0.09958671778440475, 0.10479797422885895, 0.11000923812389374, 0.11522050201892853, 0.12043176591396332, 0.12564301490783691, 0.1308542788028717, 0.1360655426979065, 0.14127680659294128]}, "gradients/dense_hgr.bias": {"_type": "histogram", "values": [1.0, 0.0, 0.0, 0.0, 0.0, 0.0, 0.0, 0.0, 0.0, 1.0, 0.0, 0.0, 0.0, 0.0, 0.0, 0.0, 0.0, 0.0, 0.0, 0.0, 0.0, 0.0, 0.0, 0.0, 1.0, 0.0, 1.0, 0.0, 0.0, 1.0, 0.0, 1.0, 0.0, 0.0, 1.0, 0.0, 0.0, 0.0, 0.0, 0.0, 0.0, 0.0, 0.0, 2.0, 1.0, 0.0, 0.0, 0.0, 0.0, 0.0, 0.0, 0.0, 0.0, 0.0, 0.0, 0.0, 0.0, 0.0, 0.0, 0.0, 0.0, 0.0, 0.0, 1.0], "bins": [-0.0037563489750027657, -0.0036386933643370867, -0.0035210377536714077, -0.0034033823758363724, -0.0032857267651706934, -0.0031680711545050144, -0.003050415776669979, -0.0029327601660043, -0.002815104555338621, -0.002697448944672942, -0.002579793334007263, -0.002462137956172228, -0.002344482345506549, -0.00222682673484087, -0.0021091713570058346, -0.0019915157463401556, -0.0018738601356744766, -0.0017562045250087976, -0.0016385489143431187, -0.0015208935365080833, -0.0014032379258424044, -0.0012855823151767254, -0.00116792693734169, -0.001050271326676011, -0.0009326157160103321, -0.0008149601053446531, -0.0006973044946789742, -0.0005796491168439388, -0.00046199350617825985, -0.00034433789551258087, -0.00022668251767754555, -0.00010902690701186657, 8.628703653812408e-06, 0.00012628431431949139, 0.00024393992498517036, 0.0003615953028202057, 0.00047925091348588467, 0.0005969065241515636, 0.000714561901986599, 0.000832217512652278, 0.0009498731233179569, 0.001067528733983636, 0.0011851843446493149, 0.0013028397224843502, 0.0014204953331500292, 0.0015381509438157082, 0.0016558063216507435, 0.0017734619323164225, 0.0018911175429821014, 0.0020087731536477804, 0.0021264287643134594, 0.0022440841421484947, 0.0023617397528141737, 0.0024793953634798527, 0.002597050741314888, 0.002714706351980567, 0.002832361962646246, 0.002950017573311925, 0.003067673183977604, 0.0031853285618126392, 0.003302984172478318, 0.003420639783143997, 0.0035382951609790325, 0.0036559507716447115, 0.0037736063823103905]}, "gradients/dense_hgr.weight": {"_type": "histogram", "values": [1.0, 0.0, 1.0, 0.0, 0.0, 1.0, 0.0, 0.0, 0.0, 0.0, 0.0, 0.0, 0.0, 0.0, 0.0, 1.0, 0.0, 0.0, 0.0, 3.0, 0.0, 0.0, 1.0, 1.0, 0.0, 3.0, 2.0, 1.0, 4.0, 4.0, 0.0, 3.0, 2.0, 2.0, 1.0, 9.0, 10.0, 11.0, 8.0, 25.0, 19.0, 51.0, 58.0, 21.0, 33.0, 17.0, 11.0, 10.0, 10.0, 5.0, 6.0, 1.0, 6.0, 1.0, 2.0, 1.0, 3.0, 1.0, 1.0, 0.0, 0.0, 0.0, 0.0, 1.0], "bins": [-0.04347492754459381, -0.042428672313690186, -0.04138241335749626, -0.040336158126592636, -0.03928989917039871, -0.03824364393949509, -0.03719738498330116, -0.03615112975239754, -0.03510487079620361, -0.03405861556529999, -0.033012356609106064, -0.03196610137820244, -0.030919844284653664, -0.02987358719110489, -0.028827330097556114, -0.02778107300400734, -0.026734815910458565, -0.02568855881690979, -0.024642301723361015, -0.02359604462981224, -0.022549787536263466, -0.02150353044271469, -0.020457273349165916, -0.01941101625561714, -0.018364761024713516, -0.01731850393116474, -0.016272246837615967, -0.015225989744067192, -0.014179732650518417, -0.013133475556969643, -0.012087218463420868, -0.011040959507226944, -0.009994706138968468, -0.008948450908064842, -0.007902191951870918, -0.0068559348583221436, -0.005809677764773369, -0.004763420671224594, -0.0037171635776758194, -0.0026709064841270447, -0.00162464939057827, -0.0005783941596746445, 0.00046786293387413025, 0.001514120027422905, 0.0025603771209716797, 0.0036066342145204544, 0.004652891308069229, 0.005699148401618004, 0.0067454054951667786, 0.007791662588715553, 0.008837919682264328, 0.009884176775813103, 0.010930433869361877, 0.011976690031588078, 0.013022947125136852, 0.014069204218685627, 0.015115461312234402, 0.016161717474460602, 0.017207976430654526, 0.01825423166155815, 0.019300488755106926, 0.0203467458486557, 0.021393002942204475, 0.02243926003575325, 0.023485517129302025]}, "gradients/dense_op.bias": {"_type": "histogram", "values": [1.0, 0.0, 0.0, 1.0, 0.0, 0.0, 0.0, 0.0, 0.0, 1.0, 1.0, 1.0, 0.0, 0.0, 0.0, 0.0, 0.0, 1.0, 1.0, 0.0, 0.0, 0.0, 0.0, 1.0, 0.0, 0.0, 1.0, 1.0, 1.0, 2.0, 0.0, 0.0, 0.0, 1.0, 1.0, 2.0, 1.0, 3.0, 0.0, 0.0, 3.0, 2.0, 2.0, 1.0, 1.0, 0.0, 0.0, 0.0, 0.0, 0.0, 0.0, 0.0, 0.0, 0.0, 0.0, 0.0, 0.0, 0.0, 0.0, 0.0, 0.0, 0.0, 1.0, 1.0], "bins": [-0.03974436596035957, -0.03869113326072693, -0.037637896835803986, -0.03658466413617134, -0.035531431436538696, -0.03447819501161575, -0.03342496231198311, -0.032371725887060165, -0.03131849318742752, -0.030265258625149727, -0.029212024062871933, -0.02815879136323929, -0.027105556800961494, -0.0260523222386837, -0.024999089539051056, -0.023945854976773262, -0.022892620414495468, -0.021839385852217674, -0.02078615128993988, -0.019732918590307236, -0.018679684028029442, -0.017626449465751648, -0.016573216766119003, -0.01551998220384121, -0.014466747641563416, -0.013413513079285622, -0.012360278517007828, -0.011307045817375183, -0.01025381125509739, -0.009200576692819595, -0.00814734399318695, -0.007094107568264008, -0.0060408711433410645, -0.00498763844370842, -0.003934402018785477, -0.002881169319152832, -0.0018279347568750381, -0.0007747001945972443, 0.0002785325050354004, 0.0013317670673131943, 0.002385001629590988, 0.003438236191868782, 0.004491470754146576, 0.005544703453779221, 0.0065979380160570145, 0.007651172578334808, 0.008704405277967453, 0.009757639840245247, 0.01081087440252304, 0.011864108964800835, 0.012917342595756054, 0.013970576226711273, 0.015023810788989067, 0.01607704535126686, 0.017130278050899506, 0.0181835126131773, 0.019236747175455093, 0.020289981737732887, 0.02134321630001068, 0.022396448999643326, 0.02344968356192112, 0.024502918124198914, 0.025556150823831558, 0.026609385386109352, 0.027662619948387146]}, "gradients/dense_op.weight": {"_type": "histogram", "values": [1.0, 0.0, 0.0, 1.0, 0.0, 1.0, 0.0, 0.0, 0.0, 0.0, 0.0, 0.0, 0.0, 0.0, 1.0, 0.0, 0.0, 1.0, 1.0, 1.0, 0.0, 1.0, 1.0, 1.0, 0.0, 1.0, 7.0, 6.0, 4.0, 5.0, 12.0, 9.0, 18.0, 28.0, 38.0, 56.0, 51.0, 77.0, 90.0, 130.0, 107.0, 83.0, 71.0, 56.0, 36.0, 34.0, 25.0, 14.0, 20.0, 8.0, 5.0, 8.0, 4.0, 1.0, 3.0, 2.0, 0.0, 2.0, 0.0, 1.0, 0.0, 0.0, 0.0, 2.0], "bins": [-0.09647596627473831, -0.09404703229665756, -0.09161810576915741, -0.08918917179107666, -0.08676023781299591, -0.08433130383491516, -0.08190236985683441, -0.07947344332933426, -0.07704450935125351, -0.07461557537317276, -0.07218664884567261, -0.06975771486759186, -0.06732878088951111, -0.06489984691143036, -0.06247091665863991, -0.06004198640584946, -0.05761305242776871, -0.05518411844968796, -0.05275518819689751, -0.050326257944107056, -0.047897323966026306, -0.04546838998794556, -0.043039459735155106, -0.040610529482364655, -0.038181595504283905, -0.035752661526203156, -0.033323727548122406, -0.030894801020622253, -0.028465867042541504, -0.026036933064460754, -0.023608006536960602, -0.021179072558879852, -0.0187501460313797, -0.01632121205329895, -0.0138922780752182, -0.011463351547718048, -0.009034417569637299, -0.006605483591556549, -0.0041765570640563965, -0.001747623085975647, 0.0006813108921051025, 0.003110244870185852, 0.005539175122976303, 0.007968105375766754, 0.010397039353847504, 0.012825973331928253, 0.015254903584718704, 0.017683833837509155, 0.020112767815589905, 0.022541701793670654, 0.024970632046461105, 0.027399562299251556, 0.029828496277332306, 0.032257430255413055, 0.034686360508203506, 0.03711529076099396, 0.03954422473907471, 0.04197315871715546, 0.04440208896994591, 0.04683101922273636, 0.04925995320081711, 0.05168888717889786, 0.05411781743168831, 0.05654674768447876, 0.05897568166255951]}, "gradients/encoder2.layernorm2.weight": {"_type": "histogram", "values": [2.0, 2.0, 3.0, 2.0, 13.0, 8.0, 14.0, 16.0, 18.0, 44.0, 36.0, 48.0, 53.0, 70.0, 91.0, 86.0, 91.0, 126.0, 119.0, 140.0, 155.0, 173.0, 186.0, 217.0, 234.0, 314.0, 337.0, 381.0, 410.0, 402.0, 436.0, 493.0, 480.0, 533.0, 492.0, 507.0, 435.0, 436.0, 320.0, 294.0, 233.0, 168.0, 98.0, 109.0, 76.0, 83.0, 50.0, 33.0, 31.0, 27.0, 20.0, 15.0, 15.0, 8.0, 7.0, 5.0, 9.0, 2.0, 1.0, 1.0, 3.0, 1.0, 2.0, 2.0], "bins": [-0.0002913810021709651, -0.0002835211926139891, -0.00027566138305701315, -0.0002678015735000372, -0.00025994176394306123, -0.00025208195438608527, -0.0002442221448291093, -0.00023636233527213335, -0.0002285025257151574, -0.00022064271615818143, -0.00021278290660120547, -0.0002049230970442295, -0.00019706330203916878, -0.00018920349248219281, -0.00018134368292521685, -0.0001734838733682409, -0.00016562406381126493, -0.00015776425425428897, -0.000149904444697313, -0.00014204463514033705, -0.0001341848255833611, -0.00012632501602638513, -0.00011846520646940917, -0.00011060539691243321, -0.00010274560190737247, -9.488579235039651e-05, -8.702598279342055e-05, -7.916617323644459e-05, -7.130636367946863e-05, -6.344655412249267e-05, -5.558674456551671e-05, -4.772693500854075e-05, -3.986711089964956e-05, -3.20073013426736e-05, -2.414749178569764e-05, -1.6287682228721678e-05, -8.427872671745718e-06, -5.680631147697568e-07, 7.291746442206204e-06, 1.5151555999182165e-05, 2.3011365556158125e-05, 3.087116056121886e-05, 3.873097011819482e-05, 4.659077967517078e-05, 5.445058923214674e-05, 6.23103987891227e-05, 7.017020834609866e-05, 7.803001790307462e-05, 8.588982746005058e-05, 9.374963701702654e-05, 0.0001016094465740025, 0.00010946925613097847, 0.00011732906568795443, 0.0001251888752449304, 0.00013304868480190635, 0.0001409084943588823, 0.00014876830391585827, 0.00015662811347283423, 0.0001644879230298102, 0.00017234771803487092, 0.00018020752759184688, 0.00018806733714882284, 0.0001959271467057988, 0.00020378695626277477, 0.00021164676581975073]}, "gradients/encoder2.layernorm2.bias": {"_type": "histogram", "values": [288.0, 288.0, 0.0, 0.0, 0.0, 288.0, 288.0, 0.0, 0.0, 0.0, 0.0, 0.0, 0.0, 0.0, 0.0, 0.0, 0.0, 288.0, 288.0, 0.0, 0.0, 0.0, 0.0, 288.0, 0.0, 0.0, 0.0, 0.0, 0.0, 288.0, 0.0, 0.0, 576.0, 288.0, 0.0, 576.0, 288.0, 0.0, 0.0, 288.0, 0.0, 0.0, 288.0, 576.0, 576.0, 288.0, 288.0, 288.0, 576.0, 288.0, 0.0, 0.0, 0.0, 288.0, 0.0, 288.0, 288.0, 0.0, 0.0, 0.0, 0.0, 288.0, 0.0, 576.0], "bins": [-0.00020267776562832296, -0.00019706925377249718, -0.00019146075646858662, -0.00018585224461276084, -0.0001802437473088503, -0.0001746352354530245, -0.00016902672359719872, -0.00016341822629328817, -0.0001578097144374624, -0.00015220121713355184, -0.00014659270527772605, -0.00014098419342190027, -0.00013537569611798972, -0.00012976719881407917, -0.00012415868695825338, -0.0001185501751024276, -0.00011294167052255943, -0.00010733316594269127, -0.0001017246613628231, -9.611614950699732e-05, -9.050764492712915e-05, -8.489914034726098e-05, -7.929063576739281e-05, -7.368212391156703e-05, -6.807362660765648e-05, -6.24651147518307e-05, -5.6856617447920144e-05, -5.124810559209436e-05, -4.563959373626858e-05, -4.0031096432358027e-05, -3.4422584576532245e-05, -2.881408727262169e-05, -2.320557541679591e-05, -1.7597063560970128e-05, -1.1988566257059574e-05, -6.380054401233792e-06, -7.715570973232388e-07, 4.836954758502543e-06, 1.0445466614328325e-05, 1.6053963918238878e-05, 2.166247577406466e-05, 2.7270973077975214e-05, 3.2879484933800995e-05, 3.848798951366916e-05, 4.409649409353733e-05, 4.97049986734055e-05, 5.531351052923128e-05, 6.092201510909945e-05, 6.653051968896762e-05, 7.213902426883578e-05, 7.774752884870395e-05, 8.335604070452973e-05, 8.89645452843979e-05, 9.457304986426607e-05, 0.00010018155444413424, 0.00010579006629996002, 0.00011139856360387057, 0.00011700707545969635, 0.0001226155727636069, 0.0001282240846194327, 0.00013383259647525847, 0.00013944109377916902, 0.0001450496056349948, 0.00015065810293890536, 0.00015626661479473114]}, "gradients/encoder2.ffn.2.bias": {"_type": "histogram", "values": [2.0, 0.0, 0.0, 0.0, 0.0, 0.0, 0.0, 0.0, 0.0, 0.0, 0.0, 0.0, 0.0, 0.0, 0.0, 0.0, 0.0, 0.0, 0.0, 0.0, 0.0, 0.0, 0.0, 0.0, 1.0, 1.0, 0.0, 2.0, 0.0, 0.0, 3.0, 3.0, 3.0, 4.0, 2.0, 2.0, 1.0, 0.0, 0.0, 1.0, 1.0, 3.0, 0.0, 0.0, 0.0, 0.0, 0.0, 0.0, 0.0, 0.0, 0.0, 0.0, 0.0, 0.0, 0.0, 0.0, 0.0, 0.0, 1.0, 0.0, 1.0, 0.0, 0.0, 1.0], "bins": [-0.037281639873981476, -0.036165907979011536, -0.035050176084041595, -0.03393444046378136, -0.03281870856881142, -0.031702976673841476, -0.030587244778871536, -0.029471512883901596, -0.028355779126286507, -0.027240045368671417, -0.026124313473701477, -0.025008581578731537, -0.023892849683761597, -0.022777115926146507, -0.021661384031176567, -0.020545650273561478, -0.019429918378591537, -0.018314186483621597, -0.017198452726006508, -0.016082720831036568, -0.014966987073421478, -0.013851255178451538, -0.012735523283481598, -0.011619789525866508, -0.010504057630896568, -0.009388325735926628, -0.008272591978311539, -0.0071568600833415985, -0.006041128188371658, -0.004925396293401718, -0.0038096606731414795, -0.0026939287781715393, -0.0015781968832015991, -0.00046246498823165894, 0.0006532669067382812, 0.00176900252699852, 0.00288473442196846, 0.0040004663169384, 0.0051161982119083405, 0.00623193196952343, 0.00734766386449337, 0.00846339575946331, 0.0095791295170784, 0.01069486141204834, 0.01181059330701828, 0.01292632706463337, 0.01404205895960331, 0.015157792717218399, 0.01627352461218834, 0.01738925650715828, 0.01850499026477337, 0.01962072215974331, 0.0207364559173584, 0.02185218781232834, 0.02296791970729828, 0.02408365160226822, 0.02519938535988331, 0.026315119117498398, 0.027430851012468338, 0.028546582907438278, 0.02966231480240822, 0.030778048560023308, 0.0318937823176384, 0.03300951421260834, 0.03412524610757828]}, "gradients/encoder2.ffn.2.weight": {"_type": "histogram", "values": [1.0, 0.0, 0.0, 0.0, 1.0, 0.0, 2.0, 1.0, 0.0, 3.0, 2.0, 4.0, 2.0, 3.0, 5.0, 7.0, 5.0, 9.0, 11.0, 12.0, 12.0, 13.0, 18.0, 31.0, 47.0, 63.0, 83.0, 128.0, 211.0, 406.0, 1229.0, 857.0, 332.0, 176.0, 104.0, 66.0, 58.0, 39.0, 33.0, 15.0, 13.0, 13.0, 19.0, 11.0, 6.0, 7.0, 8.0, 1.0, 6.0, 7.0, 1.0, 4.0, 3.0, 2.0, 1.0, 1.0, 2.0, 0.0, 1.0, 0.0, 0.0, 0.0, 0.0, 1.0], "bins": [-0.03972998261451721, -0.03843862563371658, -0.037147268652915955, -0.03585590794682503, -0.0345645509660244, -0.03327319398522377, -0.03198183700442314, -0.030690478160977364, -0.029399119317531586, -0.028107762336730957, -0.02681640535593033, -0.02552504651248455, -0.024233689531683922, -0.022942330688238144, -0.021650973707437515, -0.020359614863991737, -0.01906825788319111, -0.01777690090239048, -0.016485542058944702, -0.015194185078144073, -0.013902826234698296, -0.012611469253897667, -0.011320110410451889, -0.01002875342965126, -0.008737396448850632, -0.007446039468050003, -0.006154678761959076, -0.004863321781158447, -0.0035719648003578186, -0.00228060781955719, -0.0009892471134662628, 0.00030210986733436584, 0.0015934668481349945, 0.002884823828935623, 0.004176180809736252, 0.005467541515827179, 0.006758898496627808, 0.008050255477428436, 0.009341612458229065, 0.010632973164319992, 0.01192433014512062, 0.01321568712592125, 0.014507044106721878, 0.015798402950167656, 0.017089759930968285, 0.018381118774414062, 0.01967247575521469, 0.02096383459866047, 0.022255191579461098, 0.023546548560261726, 0.024837907403707504, 0.026129264384508133, 0.02742062322795391, 0.02871198020875454, 0.030003339052200317, 0.031294696033000946, 0.032586053013801575, 0.0338774099946022, 0.03516877070069313, 0.03646012768149376, 0.03775148466229439, 0.039042841643095016, 0.040334202349185944, 0.04162555932998657, 0.0429169163107872]}, "gradients/encoder2.ffn.0.bias": {"_type": "histogram", "values": [2.0, 0.0, 0.0, 0.0, 0.0, 0.0, 0.0, 0.0, 0.0, 3.0, 0.0, 2.0, 3.0, 4.0, 2.0, 1.0, 3.0, 3.0, 2.0, 2.0, 5.0, 7.0, 3.0, 8.0, 2.0, 6.0, 7.0, 10.0, 3.0, 4.0, 3.0, 5.0, 5.0, 3.0, 2.0, 4.0, 3.0, 2.0, 6.0, 3.0, 0.0, 1.0, 4.0, 1.0, 1.0, 1.0, 0.0, 0.0, 0.0, 0.0, 0.0, 0.0, 0.0, 0.0, 0.0, 0.0, 1.0, 0.0, 0.0, 0.0, 0.0, 0.0, 0.0, 1.0], "bins": [-0.0133301867172122, -0.012821939773857594, -0.012313691899180412, -0.011805444955825806, -0.011297198012471199, -0.010788951069116592, -0.010280704125761986, -0.009772456251084805, -0.009264209307730198, -0.008755962364375591, -0.00824771448969841, -0.007739467546343803, -0.007231220602989197, -0.00672297365963459, -0.006214726250618696, -0.005706478841602802, -0.005198231898248196, -0.004689984954893589, -0.004181738011538982, -0.003673490136861801, -0.0031652431935071945, -0.002656996250152588, -0.0021487483754754066, -0.0016405014321208, -0.0011322544887661934, -0.0006240075454115868, -0.00011576060205698013, 0.0003924872726202011, 0.0009007342159748077, 0.0014089811593294144, 0.0019172290340065956, 0.0024254759773612022, 0.0029337219893932343, 0.003441968932747841, 0.0039502158761024475, 0.004458463750779629, 0.004966710694134235, 0.005474957637488842, 0.005983205512166023, 0.00649145245552063, 0.0069996993988752365, 0.007507946342229843, 0.00801619328558445, 0.008524441160261631, 0.009032688103616238, 0.009540935046970844, 0.010049182921648026, 0.010557429865002632, 0.011065676808357239, 0.011573923751711845, 0.012082170695066452, 0.012590418569743633, 0.01309866551309824, 0.013606912456452847, 0.014115160331130028, 0.014623407274484634, 0.015131654217839241, 0.015639901161193848, 0.016148148104548454, 0.01665639504790306, 0.017164643853902817, 0.017672890797257423, 0.01818113774061203, 0.018689384683966637, 0.019197631627321243]}, "gradients/encoder2.ffn.0.weight": {"_type": "histogram", "values": [2.0, 0.0, 0.0, 0.0, 0.0, 0.0, 1.0, 1.0, 2.0, 2.0, 3.0, 1.0, 1.0, 4.0, 4.0, 1.0, 13.0, 16.0, 19.0, 57.0, 62.0, 109.0, 149.0, 230.0, 318.0, 437.0, 648.0, 598.0, 449.0, 331.0, 206.0, 144.0, 102.0, 57.0, 44.0, 25.0, 13.0, 12.0, 6.0, 7.0, 5.0, 2.0, 7.0, 0.0, 1.0, 1.0, 1.0, 0.0, 1.0, 0.0, 3.0, 0.0, 0.0, 0.0, 0.0, 0.0, 0.0, 0.0, 0.0, 0.0, 0.0, 0.0, 0.0, 1.0], "bins": [-0.028750643134117126, -0.02768496610224247, -0.026619289070367813, -0.025553612038493156, -0.0244879350066185, -0.023422259837388992, -0.022356582805514336, -0.02129090577363968, -0.020225228741765022, -0.019159551709890366, -0.01809387467801571, -0.017028197646141052, -0.015962522476911545, -0.014896844513714314, -0.013831168413162231, -0.012765491381287575, -0.011699814349412918, -0.010634137317538261, -0.009568460285663605, -0.008502783253788948, -0.007437106221914291, -0.006371431052684784, -0.005305754020810127, -0.004240076988935471, -0.003174399957060814, -0.0021087229251861572, -0.0010430458933115005, 2.2631138563156128e-05, 0.0010883063077926636, 0.0021539833396673203, 0.003219660371541977, 0.004285339266061783, 0.005351018160581589, 0.006416693329811096, 0.007482372224330902, 0.008548049256205559, 0.009613726288080215, 0.010679401457309723, 0.01174507848918438, 0.012810755521059036, 0.013876432552933693, 0.01494210958480835, 0.016007786616683006, 0.017073463648557663, 0.01813913881778717, 0.019204815849661827, 0.020270492881536484, 0.02133616991341114, 0.022401846945285797, 0.023467523977160454, 0.02453320100903511, 0.025598876178264618, 0.026664555072784424, 0.02773023024201393, 0.028795907273888588, 0.029861584305763245, 0.0309272613376379, 0.03199293836951256, 0.033058613538742065, 0.03412429243326187, 0.03518996760249138, 0.036255646497011185, 0.03732132166624069, 0.0383870005607605, 0.039452675729990005]}, "gradients/encoder2.layernorm1.weight": {"_type": "histogram", "values": [4.0, 5.0, 4.0, 6.0, 11.0, 11.0, 19.0, 19.0, 44.0, 54.0, 52.0, 82.0, 81.0, 108.0, 121.0, 129.0, 160.0, 217.0, 234.0, 280.0, 325.0, 339.0, 408.0, 428.0, 435.0, 465.0, 504.0, 498.0, 486.0, 498.0, 437.0, 435.0, 400.0, 353.0, 289.0, 264.0, 222.0, 161.0, 128.0, 104.0, 62.0, 64.0, 43.0, 41.0, 43.0, 22.0, 19.0, 15.0, 19.0, 13.0, 9.0, 8.0, 10.0, 11.0, 5.0, 4.0, 2.0, 1.0, 1.0, 1.0, 0.0, 0.0, 1.0, 2.0], "bins": [-0.00021980445308145136, -0.0002116585528710857, -0.00020351266721263528, -0.00019536676700226963, -0.0001872208813438192, -0.00017907498113345355, -0.00017092909547500312, -0.00016278319526463747, -0.00015463729505427182, -0.0001464914093958214, -0.00013834552373737097, -0.00013019962352700531, -0.00012205372331663966, -0.00011390783038223162, -0.00010576193744782358, -9.761605178937316e-05, -8.94701515790075e-05, -8.132425136864185e-05, -7.317836571019143e-05, -6.503246549982578e-05, -5.688657984137535e-05, -4.87406796310097e-05, -4.059479397255927e-05, -3.244889376219362e-05, -2.4302993551827967e-05, -1.6157107893377542e-05, -8.01120768301189e-06, 1.3467797543853521e-07, 8.280578185804188e-06, 1.6426463844254613e-05, 2.4572349502705038e-05, 3.271824971307069e-05, 4.0864135371521115e-05, 4.901003558188677e-05, 5.715593579225242e-05, 6.530182145070285e-05, 7.344770710915327e-05, 8.159360731951892e-05, 8.973949297796935e-05, 9.7885393188335e-05, 0.00010603127884678543, 0.00011417717905715108, 0.00012232307926751673, 0.00013046896492596716, 0.0001386148651363328, 0.00014676075079478323, 0.0001549066510051489, 0.0001630525366635993, 0.00017119843687396497, 0.00017934433708433062, 0.00018749022274278104, 0.0001956361229531467, 0.00020378200861159712, 0.00021192790882196277, 0.0002200737944804132, 0.00022821969469077885, 0.0002363655949011445, 0.0002445114660076797, 0.00025265736621804535, 0.000260803266428411, 0.00026894916663877666, 0.0002770950668491423, 0.0002852409379556775, 0.00029338683816604316, 0.0003015327383764088]}, "gradients/encoder2.layernorm1.bias": {"_type": "histogram", "values": [1.0, 2.0, 2.0, 9.0, 20.0, 22.0, 33.0, 59.0, 74.0, 85.0, 112.0, 111.0, 130.0, 137.0, 134.0, 114.0, 114.0, 94.0, 100.0, 105.0, 85.0, 106.0, 93.0, 110.0, 126.0, 96.0, 114.0, 85.0, 133.0, 135.0, 153.0, 133.0, 170.0, 227.0, 233.0, 272.0, 316.0, 329.0, 384.0, 362.0, 385.0, 352.0, 351.0, 317.0, 325.0, 282.0, 266.0, 217.0, 211.0, 203.0, 204.0, 186.0, 171.0, 144.0, 132.0, 118.0, 85.0, 56.0, 39.0, 23.0, 15.0, 7.0, 2.0, 5.0], "bins": [-0.00027598789893090725, -0.00026841729413717985, -0.000260846660239622, -0.0002532760554458946, -0.00024570542154833674, -0.00023813481675460935, -0.00023056421196088195, -0.00022299359261523932, -0.0002154229732695967, -0.00020785235392395407, -0.00020028173457831144, -0.00019271112978458405, -0.00018514051043894142, -0.0001775698910932988, -0.0001699992862995714, -0.00016242866695392877, -0.00015485804760828614, -0.00014728742826264352, -0.0001397168089170009, -0.0001321462041232735, -0.00012457558477763087, -0.00011700496543198824, -0.00010943436063826084, -0.00010186374129261822, -9.429312194697559e-05, -8.672250260133296e-05, -7.915188325569034e-05, -7.158127846196294e-05, -6.401065911632031e-05, -5.6440039770677686e-05, -4.886943497695029e-05, -4.129881563130766e-05, -3.3728210837580264e-05, -2.6157591491937637e-05, -1.858697214629501e-05, -1.1016367352567613e-05, -3.445748006924987e-06, 4.1248713387176394e-06, 1.1695476132445037e-05, 1.9266095478087664e-05, 2.683671482373029e-05, 3.4407334169372916e-05, 4.197795351501554e-05, 4.954855830874294e-05, 5.711917765438557e-05, 6.468979700002819e-05, 7.226040179375559e-05, 7.983102113939822e-05, 8.740164048504084e-05, 9.497225983068347e-05, 0.00010254287190036848, 0.0001101134839700535, 0.00011768410331569612, 0.00012525472266133875, 0.00013282534200698137, 0.00014039594680070877, 0.0001479665661463514, 0.00015553718549199402, 0.00016310779028572142, 0.00017067840963136405, 0.00017824902897700667, 0.0001858196483226493, 0.00019339026766829193, 0.00020096087246201932, 0.00020853149180766195]}, "gradients/encoder2.att.projection_dense.bias": {"_type": "histogram", "values": [1.0, 0.0, 1.0, 0.0, 0.0, 0.0, 0.0, 1.0, 0.0, 1.0, 0.0, 0.0, 0.0, 1.0, 0.0, 0.0, 0.0, 0.0, 1.0, 0.0, 0.0, 1.0, 0.0, 0.0, 1.0, 0.0, 0.0, 1.0, 0.0, 0.0, 0.0, 0.0, 1.0, 1.0, 0.0, 0.0, 0.0, 0.0, 1.0, 2.0, 2.0, 2.0, 1.0, 0.0, 2.0, 0.0, 1.0, 0.0, 1.0, 3.0, 0.0, 1.0, 1.0, 0.0, 0.0, 0.0, 0.0, 1.0, 0.0, 1.0, 0.0, 1.0, 0.0, 1.0], "bins": [-0.03924671560525894, -0.03820200264453888, -0.03715728968381882, -0.036112572997808456, -0.035067860037088394, -0.03402314707636833, -0.03297843411564827, -0.03193371742963791, -0.030889004468917847, -0.029844291508197784, -0.028799578547477722, -0.02775486372411251, -0.02671015076339245, -0.025665435940027237, -0.024620722979307175, -0.023576008155941963, -0.0225312951952219, -0.02148658223450184, -0.020441867411136627, -0.019397154450416565, -0.018352439627051353, -0.01730772666633129, -0.01626301184296608, -0.015218298882246017, -0.014173585921525955, -0.013128871098160744, -0.012084158137440681, -0.01103944331407547, -0.009994730353355408, -0.008950015529990196, -0.007905300706624985, -0.0068605877459049225, -0.00581587478518486, -0.004771161824464798, -0.0037264488637447357, -0.0026817340403795242, -0.0016370192170143127, -0.0005923062562942505, 0.000452408567070961, 0.0014971215277910233, 0.0025418363511562347, 0.003586549311876297, 0.004631262272596359, 0.005675977095961571, 0.006720690056681633, 0.0077654048800468445, 0.008810117840766907, 0.009854832664132118, 0.01089954562485218, 0.011944258585572243, 0.012988973408937454, 0.014033687300980091, 0.015078401193022728, 0.01612311415374279, 0.017167828977108, 0.018212541937828064, 0.019257254898548126, 0.020301969721913338, 0.02134668454527855, 0.02239139750599861, 0.023436110466718674, 0.024480825290083885, 0.025525538250803947, 0.02657025307416916, 0.02761496603488922]}, "gradients/encoder2.att.projection_dense.weight": {"_type": "histogram", "values": [1.0, 1.0, 0.0, 1.0, 0.0, 2.0, 0.0, 1.0, 2.0, 3.0, 5.0, 3.0, 4.0, 4.0, 8.0, 10.0, 13.0, 12.0, 16.0, 24.0, 25.0, 24.0, 35.0, 39.0, 40.0, 45.0, 79.0, 88.0, 80.0, 74.0, 68.0, 55.0, 40.0, 44.0, 38.0, 24.0, 18.0, 21.0, 13.0, 6.0, 7.0, 11.0, 5.0, 3.0, 3.0, 2.0, 2.0, 3.0, 3.0, 2.0, 2.0, 2.0, 1.0, 2.0, 1.0, 2.0, 2.0, 1.0, 2.0, 0.0, 0.0, 1.0, 0.0, 1.0], "bins": [-0.044427305459976196, -0.042868755757808685, -0.041310206055641174, -0.03975165635347366, -0.03819310665130615, -0.03663455322384834, -0.03507600352168083, -0.03351745381951332, -0.03195890411734581, -0.0304003544151783, -0.028841804713010788, -0.027283253148198128, -0.025724703446030617, -0.024166153743863106, -0.022607602179050446, -0.021049052476882935, -0.019490502774715424, -0.017931953072547913, -0.0163734033703804, -0.014814851805567741, -0.01325630210340023, -0.01169775053858757, -0.01013920083642006, -0.008580651134252548, -0.007022101432085037, -0.005463551729917526, -0.0039050020277500153, -0.0023464523255825043, -0.0007878988981246948, 0.0007706508040428162, 0.002329200506210327, 0.003887750208377838, 0.005446299910545349, 0.00700484961271286, 0.008563399314880371, 0.010121949017047882, 0.011680498719215393, 0.013239052146673203, 0.014797601848840714, 0.016356151551008224, 0.017914701253175735, 0.019473250955343246, 0.021031800657510757, 0.02259035035967827, 0.02414890192449093, 0.02570745162665844, 0.0272660031914711, 0.02882455289363861, 0.030383102595806122, 0.03194165229797363, 0.033500202000141144, 0.035058751702308655, 0.036617301404476166, 0.03817585110664368, 0.039734404534101486, 0.041292954236269, 0.04285150393843651, 0.04441005364060402, 0.04596860334277153, 0.04752715304493904, 0.04908570647239685, 0.05064425617456436, 0.05220280587673187, 0.053761355578899384, 0.055319905281066895]}, "gradients/encoder2.att.value_dense.bias": {"_type": "histogram", "values": [1.0, 0.0, 0.0, 0.0, 0.0, 0.0, 0.0, 1.0, 0.0, 0.0, 1.0, 0.0, 1.0, 0.0, 0.0, 0.0, 0.0, 0.0, 2.0, 2.0, 2.0, 1.0, 0.0, 0.0, 0.0, 0.0, 0.0, 0.0, 0.0, 1.0, 0.0, 2.0, 1.0, 0.0, 1.0, 0.0, 1.0, 1.0, 2.0, 0.0, 0.0, 0.0, 2.0, 1.0, 2.0, 0.0, 0.0, 1.0, 1.0, 0.0, 2.0, 0.0, 0.0, 1.0, 0.0, 1.0, 0.0, 0.0, 0.0, 0.0, 0.0, 0.0, 0.0, 1.0], "bins": [-0.051257338374853134, -0.04962793365120888, -0.04799852520227432, -0.046369120478630066, -0.04473971575498581, -0.043110307306051254, -0.041480902582407, -0.03985149413347244, -0.038222089409828186, -0.03659268468618393, -0.034963276237249374, -0.03333387151360512, -0.03170446306467056, -0.030075058341026306, -0.02844565361738205, -0.026816247031092644, -0.025186840444803238, -0.023557433858513832, -0.021928027272224426, -0.02029862254858017, -0.018669214099645615, -0.017039809376001358, -0.015410404652357101, -0.013780996203422546, -0.01215159147977829, -0.010522186756134033, -0.008892778307199478, -0.0072633735835552216, -0.005633968859910965, -0.00400456041097641, -0.0023751556873321533, -0.0007457472383975983, 0.0008836537599563599, 0.0025130584836006165, 0.0041424669325351715, 0.005771871656179428, 0.007401280105113983, 0.00903068482875824, 0.010660089552402496, 0.012289498001337051, 0.013918902724981308, 0.015548307448625565, 0.01717771589756012, 0.018807120621204376, 0.020436525344848633, 0.022065933793783188, 0.023695338517427444, 0.02532474510371685, 0.026954151690006256, 0.028583558276295662, 0.030212964862585068, 0.031842369586229324, 0.03347177803516388, 0.035101182758808136, 0.03673058748245239, 0.03835999220609665, 0.039989400655031204, 0.04161880910396576, 0.043248213827610016, 0.04487761855125427, 0.04650702327489853, 0.048136431723833084, 0.04976583644747734, 0.051395244896411896, 0.05302464962005615]}, "gradients/encoder2.att.value_dense.weight": {"_type": "histogram", "values": [2.0, 0.0, 0.0, 0.0, 0.0, 1.0, 0.0, 0.0, 0.0, 0.0, 1.0, 4.0, 1.0, 2.0, 1.0, 1.0, 4.0, 3.0, 3.0, 9.0, 6.0, 10.0, 15.0, 13.0, 21.0, 19.0, 36.0, 27.0, 40.0, 46.0, 68.0, 61.0, 67.0, 74.0, 78.0, 71.0, 58.0, 51.0, 43.0, 31.0, 30.0, 22.0, 16.0, 24.0, 14.0, 12.0, 5.0, 11.0, 4.0, 3.0, 1.0, 3.0, 2.0, 0.0, 3.0, 1.0, 0.0, 1.0, 0.0, 1.0, 0.0, 0.0, 1.0, 3.0], "bins": [-0.0854579284787178, -0.08292128890752792, -0.08038464933633804, -0.07784800976514816, -0.07531137019395828, -0.0727747306227684, -0.07023809105157852, -0.06770145893096924, -0.06516481935977936, -0.06262817978858948, -0.0600915364921093, -0.05755490064620972, -0.055018261075019836, -0.052481621503829956, -0.049944981932640076, -0.047408342361450195, -0.044871702790260315, -0.042335063219070435, -0.039798423647880554, -0.037261784076690674, -0.03472514450550079, -0.03218850865960121, -0.02965186908841133, -0.02711522951722145, -0.02457858994603157, -0.02204195410013199, -0.019505314528942108, -0.016968674957752228, -0.014432035386562347, -0.011895395815372467, -0.009358756244182587, -0.006822116672992706, -0.004285469651222229, -0.0017488300800323486, 0.0007878094911575317, 0.003324449062347412, 0.0058610886335372925, 0.008397728204727173, 0.010934367775917053, 0.013471007347106934, 0.016007643193006516, 0.018544282764196396, 0.021080922335386276, 0.023617561906576157, 0.02615419775247574, 0.02869083732366562, 0.0312274768948555, 0.03376411646604538, 0.03630075603723526, 0.03883739560842514, 0.04137403517961502, 0.0439106747508049, 0.04644731432199478, 0.04898395389318466, 0.051520589739084244, 0.054057229310274124, 0.056593868881464005, 0.059130508452653885, 0.061667148023843765, 0.06420378386974335, 0.06674042344093323, 0.06927706301212311, 0.07181370258331299, 0.07435034215450287, 0.07688698172569275]}, "gradients/encoder2.att.key_dense.bias": {"_type": "histogram", "values": [1.0, 0.0, 0.0, 0.0, 0.0, 0.0, 0.0, 0.0, 0.0, 0.0, 0.0, 0.0, 0.0, 0.0, 0.0, 0.0, 0.0, 0.0, 0.0, 0.0, 0.0, 0.0, 0.0, 1.0, 0.0, 0.0, 0.0, 1.0, 0.0, 0.0, 0.0, 0.0, 1.0, 0.0, 2.0, 0.0, 1.0, 1.0, 1.0, 1.0, 0.0, 0.0, 1.0, 5.0, 3.0, 1.0, 2.0, 2.0, 2.0, 0.0, 2.0, 0.0, 0.0, 0.0, 1.0, 0.0, 0.0, 1.0, 1.0, 0.0, 0.0, 0.0, 0.0, 1.0], "bins": [-1.862645149230957e-09, -1.8226273823529482e-09, -1.7826096154749393e-09, -1.7425918485969305e-09, -1.7025740817189217e-09, -1.6625563148409128e-09, -1.622538547962904e-09, -1.5825207810848951e-09, -1.5425030142068863e-09, -1.5024852473288774e-09, -1.4624674804508686e-09, -1.4224497135728598e-09, -1.382431946694851e-09, -1.342414179816842e-09, -1.3023964129388332e-09, -1.2623786460608244e-09, -1.2223608791828156e-09, -1.1823431123048067e-09, -1.1423253454267979e-09, -1.102307578548789e-09, -1.0622898116707802e-09, -1.0222720447927713e-09, -9.822542779147625e-10, -9.422365110367537e-10, -9.022187441587448e-10, -8.62200977280736e-10, -8.221832104027271e-10, -7.821654435247183e-10, -7.421476766467094e-10, -7.021299097687006e-10, -6.621121428906918e-10, -6.220943760126829e-10, -5.820766091346741e-10, -5.420588422566652e-10, -5.020410753786564e-10, -4.6202330850064754e-10, -4.220055416226387e-10, -3.8198777474462986e-10, -3.41970007866621e-10, -3.019522409886122e-10, -2.6193447411060333e-10, -2.219167072325945e-10, -1.8189894035458565e-10, -1.418811734765768e-10, -1.0186340659856796e-10, -6.184563972055912e-11, -2.1827872842550278e-11, 1.8189894035458565e-11, 5.820766091346741e-11, 9.822542779147625e-11, 1.382431946694851e-10, 1.7826096154749393e-10, 2.1827872842550278e-10, 2.582964953035116e-10, 2.9831426218152046e-10, 3.383320290595293e-10, 3.7834979593753815e-10, 4.18367562815547e-10, 4.5838532969355583e-10, 4.984030965715647e-10, 5.384208634495735e-10, 5.784386303275824e-10, 6.184563972055912e-10, 6.584741640836e-10, 6.984919309616089e-10]}, "gradients/encoder2.att.key_dense.weight": {"_type": "histogram", "values": [1.0, 1.0, 0.0, 0.0, 0.0, 1.0, 1.0, 0.0, 0.0, 0.0, 1.0, 1.0, 1.0, 0.0, 1.0, 0.0, 0.0, 1.0, 1.0, 3.0, 4.0, 6.0, 5.0, 8.0, 20.0, 25.0, 38.0, 51.0, 123.0, 309.0, 217.0, 73.0, 42.0, 21.0, 16.0, 18.0, 6.0, 8.0, 3.0, 4.0, 0.0, 0.0, 5.0, 2.0, 2.0, 0.0, 1.0, 1.0, 0.0, 0.0, 0.0, 1.0, 0.0, 0.0, 0.0, 0.0, 0.0, 0.0, 1.0, 0.0, 0.0, 0.0, 0.0, 1.0], "bins": [-0.025685807690024376, -0.024824146181344986, -0.023962484672665596, -0.023100823163986206, -0.022239159792661667, -0.021377500146627426, -0.020515836775302887, -0.019654175266623497, -0.018792513757944107, -0.017930852249264717, -0.017069190740585327, -0.016207527369260788, -0.015345866791903973, -0.014484205283224583, -0.013622542843222618, -0.012760881334543228, -0.011899219825863838, -0.011037558317184448, -0.010175896808505058, -0.009314235299825668, -0.008452573791146278, -0.007590910419821739, -0.006729248911142349, -0.005867587402462959, -0.005005925893783569, -0.004144264385104179, -0.0032826028764247894, -0.0024209413677453995, -0.0015592779964208603, -0.0006976164877414703, 0.00016404502093791962, 0.0010257065296173096, 0.0018873699009418488, 0.0027490314096212387, 0.0036106929183006287, 0.004472354426980019, 0.005334015935659409, 0.006195679306983948, 0.007057340815663338, 0.007919002324342728, 0.008780663833022118, 0.009642325341701508, 0.010503986850380898, 0.011365648359060287, 0.012227311730384827, 0.013088973239064217, 0.013950634747743607, 0.014812296256422997, 0.015673957765102386, 0.016535619273781776, 0.017397280782461166, 0.018258944153785706, 0.019120603799819946, 0.019982267171144485, 0.020843928679823875, 0.021705590188503265, 0.022567251697182655, 0.023428913205862045, 0.024290574714541435, 0.025152236223220825, 0.026013899594545364, 0.026875561103224754, 0.027737222611904144, 0.028598884120583534, 0.029460545629262924]}, "gradients/encoder2.att.query_dense.bias": {"_type": "histogram", "values": [1.0, 0.0, 0.0, 0.0, 0.0, 0.0, 0.0, 0.0, 0.0, 0.0, 0.0, 0.0, 0.0, 0.0, 0.0, 0.0, 0.0, 0.0, 0.0, 0.0, 0.0, 1.0, 1.0, 0.0, 0.0, 0.0, 0.0, 0.0, 1.0, 1.0, 1.0, 1.0, 1.0, 3.0, 2.0, 1.0, 2.0, 5.0, 2.0, 2.0, 0.0, 1.0, 0.0, 0.0, 0.0, 1.0, 0.0, 0.0, 1.0, 0.0, 0.0, 0.0, 1.0, 0.0, 0.0, 0.0, 0.0, 0.0, 0.0, 0.0, 1.0, 0.0, 0.0, 2.0], "bins": [-0.011384095065295696, -0.01107106264680624, -0.010758030228316784, -0.010444997809827328, -0.010131965391337872, -0.009818932972848415, -0.00950590055435896, -0.009192869067192078, -0.008879836648702621, -0.008566804230213165, -0.008253771811723709, -0.007940739393234253, -0.007627706974744797, -0.007314674556255341, -0.007001642137765884, -0.006688609719276428, -0.006375577300786972, -0.006062544882297516, -0.00574951246380806, -0.0054364800453186035, -0.005123447626829147, -0.0048104156740009785, -0.004497383255511522, -0.004184350837022066, -0.00387131841853261, -0.003558286465704441, -0.003245254047214985, -0.0029322216287255287, -0.0026191892102360725, -0.0023061567917466164, -0.00199312437325716, -0.001680091954767704, -0.0013670604676008224, -0.0010540280491113663, -0.0007409956306219101, -0.0004279632121324539, -0.00011493079364299774, 0.00019810162484645844, 0.0005111340433359146, 0.0008241664618253708, 0.0011371984146535397, 0.0014502308331429958, 0.001763263251632452, 0.002076295670121908, 0.002389327622950077, 0.0027023600414395332, 0.0030153924599289894, 0.0033284248784184456, 0.0036414572969079018, 0.003954489715397358, 0.004267522133886814, 0.00458055455237627, 0.0048935869708657265, 0.005206619389355183, 0.0055196513421833515, 0.005832683760672808, 0.006145716179162264, 0.00645874859765172, 0.006771781016141176, 0.007084812968969345, 0.007397845387458801, 0.0077108778059482574, 0.008023910224437714, 0.00833694264292717, 0.008649975061416626]}, "gradients/encoder2.att.query_dense.weight": {"_type": "histogram", "values": [1.0, 0.0, 0.0, 0.0, 1.0, 1.0, 1.0, 1.0, 0.0, 0.0, 0.0, 0.0, 0.0, 0.0, 2.0, 0.0, 2.0, 3.0, 3.0, 4.0, 10.0, 8.0, 8.0, 8.0, 5.0, 10.0, 28.0, 28.0, 52.0, 91.0, 215.0, 200.0, 135.0, 64.0, 33.0, 29.0, 16.0, 17.0, 7.0, 10.0, 6.0, 5.0, 4.0, 3.0, 1.0, 2.0, 3.0, 1.0, 2.0, 0.0, 0.0, 1.0, 1.0, 0.0, 0.0, 0.0, 0.0, 1.0, 0.0, 0.0, 0.0, 0.0, 0.0, 1.0], "bins": [-0.019011948257684708, -0.018402494490146637, -0.017793040722608566, -0.017183586955070496, -0.016574133187532425, -0.015964677557349205, -0.015355223789811134, -0.014745770022273064, -0.014136316254734993, -0.013526862487196922, -0.012917408719658852, -0.012307954020798206, -0.011698500253260136, -0.011089046485722065, -0.01047959178686142, -0.009870138019323349, -0.009260684251785278, -0.008651230484247208, -0.008041776716709137, -0.007432322017848492, -0.006822868250310421, -0.00621341448277235, -0.005603959783911705, -0.004994506016373634, -0.004385052248835564, -0.003775598481297493, -0.0031661447137594223, -0.0025566909462213516, -0.0019472353160381317, -0.001337781548500061, -0.0007283277809619904, -0.00011887401342391968, 0.0004905816167593002, 0.001100035384297371, 0.0017094891518354416, 0.0023189429193735123, 0.002928396686911583, 0.003537852317094803, 0.0041473060846328735, 0.004756759852170944, 0.005366213619709015, 0.005975667387247086, 0.006585121154785156, 0.0071945758536458015, 0.007804029621183872, 0.008413483388721943, 0.009022938087582588, 0.009632391855120659, 0.01024184562265873, 0.0108512993901968, 0.011460753157734871, 0.012070207856595516, 0.012679661624133587, 0.013289115391671658, 0.013898570090532303, 0.014508023858070374, 0.015117477625608444, 0.015726931393146515, 0.016336385160684586, 0.016945838928222656, 0.017555292695760727, 0.018164748325943947, 0.018774202093482018, 0.019383655861020088, 0.01999310962855816]}, "gradients/encoder1.layernorm2.weight": {"_type": "histogram", "values": [1.0, 0.0, 0.0, 0.0, 0.0, 0.0, 0.0, 0.0, 1.0, 0.0, 1.0, 0.0, 2.0, 0.0, 0.0, 0.0, 0.0, 0.0, 1.0, 1.0, 1.0, 1.0, 4.0, 2.0, 1.0, 5.0, 10.0, 13.0, 37.0, 135.0, 737.0, 3377.0, 3452.0, 970.0, 321.0, 85.0, 13.0, 14.0, 9.0, 6.0, 1.0, 2.0, 1.0, 3.0, 2.0, 1.0, 1.0, 1.0, 1.0, 1.0, 0.0, 0.0, 0.0, 0.0, 0.0, 0.0, 0.0, 0.0, 1.0, 0.0, 0.0, 0.0, 0.0, 1.0], "bins": [-0.004152600187808275, -0.004023261368274689, -0.003893922083079815, -0.0037645830307155848, -0.0036352439783513546, -0.0035059049259871244, -0.0033765658736228943, -0.003247227054089308, -0.003117887768894434, -0.0029885489493608475, -0.0028592096641659737, -0.002729870844632387, -0.002600531792268157, -0.002471192739903927, -0.0023418536875396967, -0.0022125146351754665, -0.0020831755828112364, -0.0019538365304470062, -0.001824497478082776, -0.001695158425718546, -0.0015658193733543158, -0.0014364803209900856, -0.0013071412686258554, -0.0011778022162616253, -0.0010484633967280388, -0.0009191243443638086, -0.0007897852919995785, -0.0006604462396353483, -0.0005311071872711182, -0.000401768134906888, -0.00027242908254265785, -0.00014308979734778404, -1.375097781419754e-05, 0.00011558784171938896, 0.00024492712691426277, 0.00037426617927849293, 0.0005036052316427231, 0.0006329442840069532, 0.0007622833363711834, 0.0008916223887354136, 0.0010209614410996437, 0.0011503002606332302, 0.0012796393129974604, 0.0014089783653616905, 0.0015383174177259207, 0.0016676564700901508, 0.001796995522454381, 0.0019263345748186111, 0.0020556736271828413, 0.0021850126795470715, 0.0023143517319113016, 0.0024436907842755318, 0.002573029836639762, 0.002702368889003992, 0.0028317077085375786, 0.0029610469937324524, 0.003090385813266039, 0.0032197250984609127, 0.003349063917994499, 0.0034784029703587294, 0.0036077420227229595, 0.0037370810750871897, 0.00386642012745142, 0.003995759412646294, 0.00412509823217988]}, "gradients/encoder1.layernorm2.bias": {"_type": "histogram", "values": [1.0, 0.0, 0.0, 0.0, 0.0, 0.0, 0.0, 0.0, 0.0, 0.0, 0.0, 0.0, 0.0, 0.0, 0.0, 0.0, 0.0, 0.0, 0.0, 1.0, 0.0, 0.0, 1.0, 3.0, 0.0, 2.0, 5.0, 3.0, 7.0, 5.0, 22.0, 69.0, 212.0, 709.0, 1144.0, 1674.0, 1595.0, 1263.0, 1127.0, 726.0, 386.0, 147.0, 52.0, 17.0, 12.0, 7.0, 4.0, 5.0, 4.0, 0.0, 4.0, 2.0, 1.0, 1.0, 0.0, 3.0, 0.0, 0.0, 0.0, 0.0, 0.0, 0.0, 1.0, 1.0], "bins": [-0.0025471672415733337, -0.002477554837241769, -0.002407942432910204, -0.002338330028578639, -0.002268717624247074, -0.0021991052199155092, -0.0021294928155839443, -0.0020598801784217358, -0.0019902680069208145, -0.0019206554861739278, -0.0018510430818423629, -0.0017814305610954762, -0.0017118181567639112, -0.0016422057524323463, -0.0015725933481007814, -0.0015029809437692165, -0.0014333685394376516, -0.0013637561351060867, -0.0012941437307745218, -0.001224531326442957, -0.001154918922111392, -0.0010853064013645053, -0.0010156939970329404, -0.0009460815927013755, -0.0008764691883698106, -0.0008068567840382457, -0.0007372443797066808, -0.0006676319753751159, -0.0005980194546282291, -0.0005284070502966642, -0.00045879464596509933, -0.00038918224163353443, -0.0003195697208866477, -0.0002499573165550828, -0.0001803449122235179, -0.00011073250789195299, -4.112010356038809e-05, 2.8492417186498642e-05, 9.810482151806355e-05, 0.00016771722584962845, 0.00023732963018119335, 0.00030694203451275826, 0.00037655443884432316, 0.00044616684317588806, 0.0005157793639227748, 0.0005853917682543397, 0.0006550041725859046, 0.0007246165769174695, 0.0007942289812490344, 0.0008638413855805993, 0.0009334537899121642, 0.001003066310659051, 0.0010726787149906158, 0.0011422911193221807, 0.0012119035236537457, 0.0012815159279853106, 0.0013511283323168755, 0.0014207407366484404, 0.0014903531409800053, 0.0015599655453115702, 0.001629577949643135, 0.0016991904703900218, 0.0017688028747215867, 0.0018384152790531516, 0.0019080276833847165]}, "gradients/encoder1.ffn.2.bias": {"_type": "histogram", "values": [1.0, 0.0, 0.0, 0.0, 0.0, 0.0, 0.0, 0.0, 0.0, 0.0, 1.0, 1.0, 0.0, 0.0, 1.0, 0.0, 0.0, 0.0, 1.0, 0.0, 1.0, 0.0, 1.0, 0.0, 3.0, 0.0, 2.0, 0.0, 1.0, 1.0, 0.0, 1.0, 0.0, 1.0, 3.0, 1.0, 1.0, 0.0, 1.0, 1.0, 0.0, 0.0, 2.0, 1.0, 0.0, 0.0, 0.0, 1.0, 0.0, 0.0, 0.0, 0.0, 0.0, 1.0, 0.0, 1.0, 0.0, 0.0, 0.0, 0.0, 1.0, 0.0, 1.0, 1.0], "bins": [-0.05131096392869949, -0.04986455291509628, -0.04841814562678337, -0.04697173461318016, -0.04552532732486725, -0.04407891631126404, -0.04263250529766083, -0.04118609428405762, -0.039739686995744705, -0.03829327970743179, -0.03684686869382858, -0.03540045768022537, -0.03395404666662216, -0.03250763937830925, -0.03106122836470604, -0.029614819213747978, -0.028168410062789917, -0.026722000911831856, -0.025275591760873795, -0.023829180747270584, -0.022382771596312523, -0.02093636244535446, -0.01948995143175125, -0.01804354414343834, -0.01659713312983513, -0.015150722116231918, -0.013704314827919006, -0.012257903814315796, -0.010811492800712585, -0.009365085512399673, -0.007918674498796463, -0.006472267210483551, -0.005025852471590042, -0.0035794414579868317, -0.0021330341696739197, -0.0006866231560707092, 0.0007597841322422028, 0.002206195145845413, 0.0036526061594486237, 0.005099013447761536, 0.006545424461364746, 0.007991835474967957, 0.009438242763280869, 0.010884653776884079, 0.01233106292784214, 0.013777472078800201, 0.015223883092403412, 0.016670292243361473, 0.018116701394319534, 0.019563110545277596, 0.021009519696235657, 0.022455930709838867, 0.02390233986079693, 0.02534874901175499, 0.0267951600253582, 0.02824156917631626, 0.029687978327274323, 0.031134387478232384, 0.032580796629190445, 0.034027207642793655, 0.03547361493110657, 0.03692002594470978, 0.03836643695831299, 0.0398128442466259, 0.04125925526022911]}, "gradients/encoder1.ffn.2.weight": {"_type": "histogram", "values": [1.0, 1.0, 0.0, 0.0, 1.0, 0.0, 1.0, 1.0, 0.0, 1.0, 1.0, 3.0, 1.0, 3.0, 3.0, 1.0, 6.0, 4.0, 11.0, 10.0, 12.0, 16.0, 21.0, 30.0, 31.0, 56.0, 68.0, 79.0, 99.0, 149.0, 211.0, 334.0, 575.0, 1236.0, 436.0, 214.0, 125.0, 77.0, 59.0, 44.0, 40.0, 23.0, 21.0, 20.0, 17.0, 10.0, 7.0, 5.0, 6.0, 7.0, 8.0, 1.0, 0.0, 2.0, 0.0, 2.0, 1.0, 1.0, 0.0, 1.0, 0.0, 1.0, 0.0, 2.0], "bins": [-0.06407544016838074, -0.0621517188847065, -0.06022799387574196, -0.05830427259206772, -0.05638054758310318, -0.05445682629942894, -0.0525331050157547, -0.05060938000679016, -0.04868565499782562, -0.04676193371415138, -0.04483821243047714, -0.042914487421512604, -0.040990766137838364, -0.039067044854164124, -0.037143319845199585, -0.035219594836235046, -0.033295873552560806, -0.031372152268886566, -0.029448427259922028, -0.027524705976247787, -0.02560098096728325, -0.02367725968360901, -0.02175353467464447, -0.01982981339097023, -0.01790609210729599, -0.01598236709833145, -0.014058645814657211, -0.012134920805692673, -0.010211199522018433, -0.008287474513053894, -0.006363753229379654, -0.004440028220415115, -0.0025163069367408752, -0.0005925856530666351, 0.0013311393558979034, 0.0032548606395721436, 0.005178585648536682, 0.007102306932210922, 0.00902603194117546, 0.010949753224849701, 0.01287347823381424, 0.01479719951748848, 0.01672092080116272, 0.01864464581012726, 0.0205683670938015, 0.022492092102766037, 0.024415813386440277, 0.026339538395404816, 0.028263259679079056, 0.030186982825398445, 0.032110705971717834, 0.03403443098068237, 0.03595815226435661, 0.03788187354803085, 0.03980559855699539, 0.04172931984066963, 0.04365304112434387, 0.04557676613330841, 0.04750049114227295, 0.04942421242594719, 0.05134793370962143, 0.05327165871858597, 0.05519538000226021, 0.05711910501122475, 0.05904282629489899]}, "gradients/encoder1.ffn.0.bias": {"_type": "histogram", "values": [1.0, 0.0, 0.0, 0.0, 0.0, 0.0, 0.0, 1.0, 0.0, 0.0, 0.0, 0.0, 0.0, 0.0, 0.0, 0.0, 3.0, 2.0, 0.0, 1.0, 3.0, 0.0, 2.0, 2.0, 2.0, 1.0, 2.0, 3.0, 2.0, 1.0, 3.0, 6.0, 5.0, 5.0, 10.0, 11.0, 13.0, 7.0, 4.0, 5.0, 4.0, 2.0, 5.0, 3.0, 5.0, 0.0, 1.0, 1.0, 0.0, 3.0, 0.0, 0.0, 4.0, 1.0, 0.0, 0.0, 0.0, 2.0, 0.0, 0.0, 1.0, 0.0, 0.0, 1.0], "bins": [-0.0341787114739418, -0.03323904052376747, -0.03229936957359314, -0.03135969862341881, -0.030420025810599327, -0.029480354860424995, -0.028540682047605515, -0.027601011097431183, -0.02666134014725685, -0.02572166919708252, -0.024781998246908188, -0.023842325434088707, -0.022902654483914375, -0.021962983533740044, -0.021023310720920563, -0.02008363977074623, -0.0191439688205719, -0.018204297870397568, -0.017264626920223236, -0.016324954107403755, -0.015385283157229424, -0.014445612207055092, -0.013505939394235611, -0.01256626844406128, -0.011626597493886948, -0.010686926543712616, -0.009747255593538284, -0.008807582780718803, -0.007867911830544472, -0.00692824088037014, -0.005988568067550659, -0.0050488971173763275, -0.004109224304556847, -0.003169553354382515, -0.0022298824042081833, -0.0012902095913887024, -0.00035053864121437073, 0.0005891323089599609, 0.0015288051217794418, 0.0024684760719537735, 0.003408147022128105, 0.004347817972302437, 0.0052874889224767685, 0.006227161735296249, 0.007166832685470581, 0.008106503635644913, 0.009046176448464394, 0.009985847398638725, 0.010925518348813057, 0.011865189298987389, 0.012804861180484295, 0.013744533061981201, 0.014684204012155533, 0.015623874962329865, 0.016563545912504196, 0.017503218725323677, 0.01844288967549801, 0.01938256062567234, 0.02032223343849182, 0.021261904388666153, 0.022201575338840485, 0.023141246289014816, 0.024080917239189148, 0.02502059005200863, 0.02596026100218296]}, "gradients/encoder1.ffn.0.weight": {"_type": "histogram", "values": [1.0, 0.0, 0.0, 0.0, 0.0, 1.0, 0.0, 0.0, 0.0, 0.0, 0.0, 1.0, 0.0, 0.0, 0.0, 1.0, 1.0, 2.0, 3.0, 1.0, 2.0, 3.0, 5.0, 5.0, 4.0, 4.0, 13.0, 4.0, 15.0, 17.0, 20.0, 40.0, 73.0, 99.0, 169.0, 301.0, 547.0, 1092.0, 731.0, 370.0, 200.0, 133.0, 81.0, 33.0, 33.0, 20.0, 14.0, 14.0, 5.0, 9.0, 8.0, 5.0, 4.0, 1.0, 1.0, 3.0, 1.0, 0.0, 1.0, 2.0, 0.0, 2.0, 0.0, 1.0], "bins": [-0.08294547349214554, -0.08074288070201874, -0.07854028791189194, -0.07633769512176514, -0.07413510233163834, -0.07193250954151154, -0.06972990930080414, -0.06752731651067734, -0.06532472372055054, -0.06312213093042374, -0.060919538140296936, -0.058716945350170135, -0.056514352560043335, -0.054311759769916534, -0.052109166979789734, -0.049906570464372635, -0.047703977674245834, -0.045501384884119034, -0.04329879209399223, -0.041096195578575134, -0.038893602788448334, -0.03669100999832153, -0.03448841720819473, -0.03228582441806793, -0.03008323162794113, -0.027880635112524033, -0.025678042322397232, -0.02347544953227043, -0.02127285674214363, -0.019070260226726532, -0.01686766743659973, -0.014665074646472931, -0.01246248185634613, -0.01025988906621933, -0.00805729627609253, -0.005854703485965729, -0.0036521069705486298, -0.0014495141804218292, 0.0007530786097049713, 0.002955671399831772, 0.005158267915248871, 0.007360860705375671, 0.009563453495502472, 0.011766046285629272, 0.013968639075756073, 0.016171231865882874, 0.018373828381299973, 0.020576421171426773, 0.022779013961553574, 0.024981606751680374, 0.027184201404452324, 0.029386794194579124, 0.031589388847351074, 0.033791981637477875, 0.035994574427604675, 0.038197167217731476, 0.040399760007858276, 0.042602356523275375, 0.044804949313402176, 0.047007542103528976, 0.04921013489365578, 0.051412731409072876, 0.053615324199199677, 0.05581791698932648, 0.05802050977945328]}, "gradients/encoder1.layernorm1.weight": {"_type": "histogram", "values": [1.0, 1.0, 0.0, 0.0, 0.0, 0.0, 0.0, 0.0, 0.0, 0.0, 0.0, 0.0, 2.0, 1.0, 1.0, 0.0, 1.0, 2.0, 3.0, 3.0, 6.0, 5.0, 8.0, 19.0, 49.0, 150.0, 385.0, 1365.0, 3752.0, 2373.0, 634.0, 229.0, 119.0, 61.0, 12.0, 10.0, 9.0, 3.0, 1.0, 0.0, 1.0, 5.0, 1.0, 0.0, 0.0, 0.0, 0.0, 0.0, 1.0, 0.0, 0.0, 0.0, 0.0, 1.0, 0.0, 0.0, 1.0, 0.0, 0.0, 0.0, 0.0, 0.0, 0.0, 1.0], "bins": [-0.0034519066102802753, -0.003331861924380064, -0.0032118172384798527, -0.003091772785410285, -0.0029717280995100737, -0.0028516834136098623, -0.002731638727709651, -0.0026115942746400833, -0.002491549588739872, -0.0023715049028396606, -0.0022514602169394493, -0.002131415531039238, -0.0020113708451390266, -0.001891326392069459, -0.0017712817061692476, -0.0016512371366843581, -0.0015311924507841468, -0.0014111478812992573, -0.001291103195399046, -0.0011710585094988346, -0.0010510138235986233, -0.0009309693705290556, -0.0008109246846288443, -0.0006908799987286329, -0.0005708353128284216, -0.00045079062692821026, -0.0003307461738586426, -0.00021070148795843124, -9.065680205821991e-05, 2.9387883841991425e-05, 0.0001494323369115591, 0.00026947702281177044, 0.0003895217087119818, 0.0005095663946121931, 0.0006296110805124044, 0.0007496555335819721, 0.0008697002194821835, 0.0009897449053823948, 0.0011097895912826061, 0.0012298340443521738, 0.0013498787302523851, 0.0014699234161525965, 0.0015899681020528078, 0.0017100127879530191, 0.0018300572410225868, 0.0019501019269227982, 0.0020701466128230095, 0.002190191298723221, 0.002310235984623432, 0.0024302806705236435, 0.002550325123593211, 0.0026703698094934225, 0.00279041426256299, 0.0029104589484632015, 0.003030503634363413, 0.003150548320263624, 0.0032705930061638355, 0.003390637692064047, 0.0035106821451336145, 0.003630726831033826, 0.003750771516934037, 0.0038708162028342485, 0.003990860655903816, 0.0041109053418040276, 0.004230950027704239]}, "gradients/encoder1.layernorm1.bias": {"_type": "histogram", "values": [1.0, 0.0, 0.0, 0.0, 0.0, 0.0, 0.0, 0.0, 0.0, 0.0, 0.0, 0.0, 0.0, 0.0, 0.0, 2.0, 0.0, 1.0, 1.0, 4.0, 3.0, 7.0, 7.0, 15.0, 22.0, 61.0, 178.0, 374.0, 793.0, 1329.0, 1600.0, 1373.0, 1037.0, 927.0, 663.0, 456.0, 206.0, 84.0, 27.0, 8.0, 9.0, 9.0, 1.0, 5.0, 2.0, 3.0, 0.0, 1.0, 1.0, 0.0, 2.0, 0.0, 0.0, 1.0, 0.0, 0.0, 0.0, 2.0, 0.0, 0.0, 0.0, 0.0, 0.0, 1.0], "bins": [-0.002173807006329298, -0.0021044351160526276, -0.002035063225775957, -0.0019656913354992867, -0.0018963194452226162, -0.0018269475549459457, -0.0017575755482539535, -0.001688203657977283, -0.0016188317677006125, -0.001549459877423942, -0.0014800879871472716, -0.0014107159804552794, -0.001341344090178609, -0.0012719721999019384, -0.001202600309625268, -0.0011332284193485975, -0.001063856529071927, -0.0009944846387952566, -0.0009251127485185862, -0.0008557408582419157, -0.0007863689679652452, -0.000716996961273253, -0.0006476250709965825, -0.000578253180719912, -0.0005088812904432416, -0.00043950940016657114, -0.0003701375098899007, -0.00030076561961323023, -0.00023139361292123795, -0.0001620217226445675, -9.264983236789703e-05, -2.3277942091226578e-05, 4.609418101608753e-05, 0.00011546607129275799, 0.00018483796156942844, 0.0002542098518460989, 0.00032358174212276936, 0.00039295374881476164, 0.0004623256390914321, 0.0005316975293681026, 0.000601069419644773, 0.0006704413099214435, 0.0007398132001981139, 0.0008091850904747844, 0.0008785570971667767, 0.0009479289874434471, 0.0010173008777201176, 0.001086672767996788, 0.0011560446582734585, 0.001225416548550129, 0.0012947884388267994, 0.0013641603291034698, 0.0014335322193801403, 0.0015029041096568108, 0.001572276116348803, 0.0016416480066254735, 0.001711019896902144, 0.0017803917871788144, 0.0018497636774554849, 0.0019191356841474771, 0.0019885075744241476, 0.002057879464700818, 0.0021272513549774885, 0.002196623245254159, 0.0022659951355308294]}, "gradients/encoder1.att.projection_dense.bias": {"_type": "histogram", "values": [1.0, 0.0, 1.0, 0.0, 1.0, 0.0, 0.0, 0.0, 0.0, 0.0, 0.0, 0.0, 1.0, 0.0, 1.0, 1.0, 1.0, 0.0, 2.0, 0.0, 0.0, 1.0, 2.0, 3.0, 0.0, 1.0, 0.0, 0.0, 0.0, 1.0, 0.0, 0.0, 0.0, 1.0, 1.0, 1.0, 2.0, 1.0, 0.0, 0.0, 0.0, 0.0, 0.0, 1.0, 0.0, 0.0, 1.0, 1.0, 1.0, 0.0, 0.0, 1.0, 0.0, 0.0, 0.0, 1.0, 1.0, 1.0, 0.0, 0.0, 0.0, 0.0, 0.0, 1.0], "bins": [-0.013180412352085114, -0.01274894643574953, -0.012317479588091373, -0.01188601367175579, -0.011454546824097633, -0.01102308090776205, -0.010591614060103893, -0.01016014814376831, -0.009728681296110153, -0.00929721537977457, -0.008865749463438988, -0.00843428261578083, -0.008002815768122673, -0.00757134985178709, -0.00713988346979022, -0.00670841708779335, -0.00627695070579648, -0.00584548432379961, -0.00541401794180274, -0.00498255155980587, -0.004551085643470287, -0.00411961879581213, -0.0036881528794765472, -0.00325668603181839, -0.002825220115482807, -0.00239375326782465, -0.001962287351489067, -0.0015308205038309097, -0.001099354587495327, -0.0006678877398371696, -0.00023642182350158691, 0.00019504502415657043, 0.0006265109404921532, 0.001057976856827736, 0.0014894437044858932, 0.001920909620821476, 0.0023523764684796333, 0.002783842384815216, 0.0032153092324733734, 0.003646775148808956, 0.0040782419964671135, 0.004509707912802696, 0.004941174760460854, 0.005372640676796436, 0.005804107524454594, 0.006235573440790176, 0.006667039822787046, 0.0070985062047839165, 0.0075299725867807865, 0.007961438968777657, 0.008392905816435814, 0.008824371732771397, 0.00925583764910698, 0.009687304496765137, 0.010118771344423294, 0.010550237260758877, 0.01098170317709446, 0.011413170024752617, 0.0118446359410882, 0.012276102788746357, 0.01270756870508194, 0.013139035552740097, 0.01357050146907568, 0.014001968316733837, 0.01443343423306942]}, "gradients/encoder1.att.projection_dense.weight": {"_type": "histogram", "values": [2.0, 1.0, 1.0, 2.0, 2.0, 5.0, 3.0, 0.0, 4.0, 2.0, 1.0, 3.0, 4.0, 12.0, 7.0, 8.0, 14.0, 26.0, 20.0, 22.0, 27.0, 42.0, 36.0, 50.0, 64.0, 62.0, 98.0, 76.0, 69.0, 60.0, 45.0, 39.0, 38.0, 27.0, 32.0, 27.0, 18.0, 14.0, 11.0, 13.0, 5.0, 4.0, 4.0, 4.0, 2.0, 1.0, 4.0, 4.0, 6.0, 1.0, 0.0, 1.0, 0.0, 0.0, 0.0, 0.0, 0.0, 0.0, 0.0, 0.0, 0.0, 0.0, 0.0, 1.0], "bins": [-0.11167166382074356, -0.10753420740365982, -0.10339675843715668, -0.09925930202007294, -0.0951218530535698, -0.09098439663648605, -0.08684694766998291, -0.08270949125289917, -0.07857203483581543, -0.07443458586931229, -0.07029713690280914, -0.0661596804857254, -0.06202222406864166, -0.05788477137684822, -0.05374731868505478, -0.04960986599326134, -0.045472413301467896, -0.041334956884384155, -0.03719750791788101, -0.03306005150079727, -0.02892260253429413, -0.024785146117210388, -0.020647697150707245, -0.016510240733623505, -0.012372784316539764, -0.008235335350036621, -0.004097878932952881, 3.957003355026245e-05, 0.004177026450634003, 0.008314475417137146, 0.012451931834220886, 0.01658938080072403, 0.020726844668388367, 0.024864301085472107, 0.02900175005197525, 0.03313920646905899, 0.037276655435562134, 0.041414111852645874, 0.04555156081914902, 0.04968901723623276, 0.0538264662027359, 0.05796392261981964, 0.06210137903690338, 0.06623882800340652, 0.07037628442049026, 0.07451373338699341, 0.07865118980407715, 0.08278863877058029, 0.08692609518766403, 0.09106354415416718, 0.09520100057125092, 0.09933845698833466, 0.1034759059548378, 0.10761336237192154, 0.11175081133842468, 0.11588826775550842, 0.12002572417259216, 0.1241631731390953, 0.12830062210559845, 0.1324380785226822, 0.13657553493976593, 0.14071299135684967, 0.14485043287277222, 0.14898788928985596, 0.1531253457069397]}, "gradients/encoder1.att.value_dense.bias": {"_type": "histogram", "values": [1.0, 0.0, 0.0, 0.0, 0.0, 0.0, 0.0, 0.0, 1.0, 0.0, 2.0, 0.0, 0.0, 0.0, 0.0, 0.0, 0.0, 0.0, 0.0, 0.0, 1.0, 0.0, 0.0, 0.0, 0.0, 2.0, 0.0, 1.0, 2.0, 1.0, 2.0, 3.0, 1.0, 1.0, 0.0, 0.0, 0.0, 2.0, 0.0, 1.0, 0.0, 1.0, 0.0, 0.0, 1.0, 1.0, 1.0, 3.0, 0.0, 1.0, 2.0, 0.0, 0.0, 0.0, 0.0, 0.0, 0.0, 0.0, 0.0, 0.0, 0.0, 0.0, 0.0, 1.0], "bins": [-0.026953592896461487, -0.026179151609539986, -0.025404712185263634, -0.024630270898342133, -0.02385582961142063, -0.02308138832449913, -0.02230694890022278, -0.021532507613301277, -0.020758066326379776, -0.019983626902103424, -0.019209185615181923, -0.018434744328260422, -0.01766030490398407, -0.01688586361706257, -0.016111422330141068, -0.015336981974542141, -0.014562541618943214, -0.013788101263344288, -0.013013659976422787, -0.01223921962082386, -0.011464778333902359, -0.010690338909626007, -0.009915897622704506, -0.009141456335783005, -0.008367016911506653, -0.007592575624585152, -0.0068181343376636505, -0.006043693050742149, -0.005269253626465797, -0.004494812339544296, -0.003720371052622795, -0.002945931628346443, -0.002171490341424942, -0.0013970490545034409, -0.0006226096302270889, 0.00015183165669441223, 0.0009262729436159134, 0.0017007123678922653, 0.0024751536548137665, 0.0032495949417352676, 0.004024036228656769, 0.004798475652933121, 0.005572916939854622, 0.006347358226776123, 0.007121797651052475, 0.007896238937973976, 0.008670679293572903, 0.009445120580494404, 0.01021956093609333, 0.010994001291692257, 0.011768442578613758, 0.012542882934212685, 0.013317324221134186, 0.014091764576733112, 0.014866204932332039, 0.01564064621925354, 0.016415085643529892, 0.017189526930451393, 0.017963968217372894, 0.018738407641649246, 0.019512848928570747, 0.02028729021549225, 0.02106173150241375, 0.0218361709266901, 0.022610612213611603]}, "gradients/encoder1.att.value_dense.weight": {"_type": "histogram", "values": [1.0, 0.0, 0.0, 0.0, 0.0, 0.0, 0.0, 0.0, 0.0, 0.0, 0.0, 0.0, 0.0, 0.0, 0.0, 0.0, 0.0, 0.0, 0.0, 0.0, 1.0, 1.0, 0.0, 0.0, 0.0, 0.0, 5.0, 3.0, 8.0, 9.0, 3.0, 8.0, 5.0, 15.0, 20.0, 26.0, 55.0, 59.0, 84.0, 89.0, 123.0, 123.0, 113.0, 68.0, 58.0, 45.0, 34.0, 15.0, 11.0, 10.0, 7.0, 4.0, 6.0, 3.0, 0.0, 0.0, 2.0, 2.0, 0.0, 1.0, 1.0, 3.0, 0.0, 3.0], "bins": [-0.37109655141830444, -0.36206457018852234, -0.3530326187610626, -0.3440006375312805, -0.3349686861038208, -0.3259367048740387, -0.3169047236442566, -0.3078727722167969, -0.29884079098701477, -0.28980880975723267, -0.28077685832977295, -0.27174487709999084, -0.26271289587020874, -0.253680944442749, -0.24464896321296692, -0.235616996884346, -0.2265850305557251, -0.2175530642271042, -0.20852109789848328, -0.19948911666870117, -0.19045715034008026, -0.18142518401145935, -0.17239320278167725, -0.16336123645305634, -0.15432927012443542, -0.14529730379581451, -0.1362653374671936, -0.1272333562374115, -0.1182013750076294, -0.10916942358016968, -0.10013744235038757, -0.09110549092292786, -0.08207353949546814, -0.07304155826568604, -0.06400960683822632, -0.054977625608444214, -0.0459456741809845, -0.03691369295120239, -0.027881711721420288, -0.018849745392799377, -0.009817779064178467, -0.0007858127355575562, 0.008246153593063354, 0.01727813482284546, 0.02631010115146637, 0.03534206748008728, 0.044374048709869385, 0.053406015038490295, 0.062437981367111206, 0.07146994769573212, 0.08050191402435303, 0.08953389525413513, 0.09856586158275604, 0.10759782791137695, 0.11662980169057846, 0.12566177546977997, 0.13469374179840088, 0.1437257081270218, 0.1527576744556427, 0.1617896556854248, 0.17082162201404572, 0.17985358834266663, 0.18888556957244873, 0.19791753590106964, 0.20694950222969055]}, "gradients/encoder1.att.key_dense.bias": {"_type": "histogram", "values": [1.0, 0.0, 0.0, 0.0, 0.0, 0.0, 1.0, 0.0, 0.0, 0.0, 0.0, 0.0, 0.0, 0.0, 0.0, 0.0, 0.0, 0.0, 0.0, 0.0, 0.0, 1.0, 0.0, 2.0, 2.0, 1.0, 2.0, 2.0, 0.0, 2.0, 4.0, 1.0, 2.0, 3.0, 2.0, 0.0, 1.0, 0.0, 0.0, 0.0, 1.0, 0.0, 0.0, 0.0, 0.0, 1.0, 0.0, 0.0, 0.0, 0.0, 0.0, 0.0, 0.0, 2.0, 0.0, 0.0, 0.0, 0.0, 0.0, 0.0, 0.0, 0.0, 0.0, 1.0], "bins": [-1.3737007975578308e-08, -1.327498466707766e-08, -1.2812961358577013e-08, -1.2350938050076365e-08, -1.1888914741575718e-08, -1.142689143307507e-08, -1.0964868124574423e-08, -1.0502844816073775e-08, -1.0040821507573128e-08, -9.57879819907248e-09, -9.116774890571833e-09, -8.654751582071185e-09, -8.192728273570538e-09, -7.73070496506989e-09, -7.2686816565692425e-09, -6.806658348068595e-09, -6.344635039567947e-09, -5.8826117310673e-09, -5.420588422566652e-09, -4.958565114066005e-09, -4.496541805565357e-09, -4.03451849706471e-09, -3.572495188564062e-09, -3.1104718800634146e-09, -2.648448571562767e-09, -2.1864252630621195e-09, -1.724401954561472e-09, -1.2623786460608244e-09, -8.003553375601768e-10, -3.383320290595293e-10, 1.2369127944111824e-10, 5.857145879417658e-10, 1.0477378964424133e-09, 1.5097612049430609e-09, 1.9717845134437084e-09, 2.433807821944356e-09, 2.8958311304450035e-09, 3.357854438945651e-09, 3.819877747446299e-09, 4.281901055946946e-09, 4.743924364447594e-09, 5.205947672948241e-09, 5.667970981448889e-09, 6.129994289949536e-09, 6.592017598450184e-09, 7.054040906950831e-09, 7.516064215451479e-09, 7.978087523952127e-09, 8.440110832452774e-09, 8.902134140953422e-09, 9.364157449454069e-09, 9.826180757954717e-09, 1.0288204066455364e-08, 1.0750227374956012e-08, 1.121225068345666e-08, 1.1674273991957307e-08, 1.2136297300457954e-08, 1.2598320608958602e-08, 1.306034391745925e-08, 1.3522367225959897e-08, 1.3984390534460545e-08, 1.4446413842961192e-08, 1.490843715146184e-08, 1.5370460459962487e-08, 1.5832483768463135e-08]}, "gradients/encoder1.att.key_dense.weight": {"_type": "histogram", "values": [1.0, 0.0, 0.0, 0.0, 0.0, 0.0, 0.0, 0.0, 2.0, 2.0, 1.0, 1.0, 1.0, 2.0, 0.0, 0.0, 2.0, 0.0, 2.0, 1.0, 3.0, 11.0, 10.0, 21.0, 19.0, 43.0, 243.0, 502.0, 74.0, 32.0, 16.0, 8.0, 6.0, 4.0, 3.0, 1.0, 3.0, 0.0, 1.0, 0.0, 2.0, 0.0, 1.0, 1.0, 2.0, 0.0, 1.0, 0.0, 0.0, 0.0, 1.0, 0.0, 0.0, 0.0, 0.0, 0.0, 0.0, 0.0, 0.0, 0.0, 0.0, 0.0, 0.0, 1.0], "bins": [-0.609896183013916, -0.5874515771865845, -0.5650069713592529, -0.5425623655319214, -0.5201178193092346, -0.4976732134819031, -0.47522860765457153, -0.45278400182724, -0.43033942580223083, -0.4078948497772217, -0.38545024394989014, -0.3630056381225586, -0.34056103229522705, -0.3181164562702179, -0.29567185044288635, -0.2732272744178772, -0.25078266859054565, -0.2283380627632141, -0.20589348673820496, -0.1834488809108734, -0.16100430488586426, -0.13855969905853271, -0.11611509323120117, -0.09367048740386963, -0.07122588157653809, -0.04878133535385132, -0.026336729526519775, -0.0038921236991882324, 0.01855248212814331, 0.040997087955474854, 0.06344163417816162, 0.08588624000549316, 0.10833078622817993, 0.13077539205551147, 0.15321999788284302, 0.17566454410552979, 0.19810914993286133, 0.22055375576019287, 0.24299836158752441, 0.26544296741485596, 0.2878875136375427, 0.31033211946487427, 0.3327767252922058, 0.35522133111953735, 0.3776659369468689, 0.40011051297187805, 0.4225551187992096, 0.44499969482421875, 0.4674443006515503, 0.48988890647888184, 0.5123335123062134, 0.5347781181335449, 0.5572226643562317, 0.5796672701835632, 0.6021118760108948, 0.6245564818382263, 0.6470010280609131, 0.6694456338882446, 0.6918902397155762, 0.7143348455429077, 0.7367794513702393, 0.7592240571975708, 0.7816686034202576, 0.8041132092475891, 0.8265578150749207]}, "gradients/encoder1.att.query_dense.bias": {"_type": "histogram", "values": [1.0, 0.0, 0.0, 0.0, 0.0, 0.0, 0.0, 0.0, 0.0, 0.0, 0.0, 0.0, 0.0, 0.0, 0.0, 0.0, 0.0, 0.0, 0.0, 0.0, 0.0, 0.0, 0.0, 0.0, 0.0, 0.0, 1.0, 0.0, 0.0, 0.0, 0.0, 0.0, 0.0, 0.0, 0.0, 0.0, 0.0, 1.0, 0.0, 1.0, 1.0, 0.0, 4.0, 8.0, 5.0, 4.0, 1.0, 1.0, 0.0, 1.0, 0.0, 0.0, 0.0, 1.0, 0.0, 0.0, 0.0, 1.0, 0.0, 0.0, 0.0, 0.0, 0.0, 1.0], "bins": [-0.03687803074717522, -0.0360514260828495, -0.03522481769323349, -0.034398213028907776, -0.03357160836458206, -0.03274499997496605, -0.031918395310640335, -0.031091788783669472, -0.03026518225669861, -0.029438577592372894, -0.02861197106540203, -0.027785364538431168, -0.026958759874105453, -0.02613215334713459, -0.025305546820163727, -0.024478942155838013, -0.02365233562886715, -0.022825729101896286, -0.021999124437570572, -0.02117251791059971, -0.020345911383628845, -0.01951930671930313, -0.018692700192332268, -0.017866093665361404, -0.01703948900103569, -0.016212882474064827, -0.015386275947093964, -0.0145596694201231, -0.013733064755797386, -0.012906458228826523, -0.01207985170185566, -0.011253247037529945, -0.010426638647913933, -0.00960003212094307, -0.008773427456617355, -0.007946820929646492, -0.007120214402675629, -0.0062936097383499146, -0.005467003211379051, -0.004640396684408188, -0.0038137901574373245, -0.0029871854931116104, -0.002160578966140747, -0.0013339724391698837, -0.0005073677748441696, 0.0003192387521266937, 0.0011458443477749825, 0.001972450874745846, 0.0027990564703941345, 0.0036256620660424232, 0.004452268593013287, 0.005278874188661575, 0.006105480715632439, 0.006932086311280727, 0.007758691906929016, 0.00858529843389988, 0.009411904029548168, 0.010238509625196457, 0.01106511615216732, 0.011891721747815609, 0.012718327343463898, 0.013544933870434761, 0.01437153946608305, 0.015198145993053913, 0.016024751588702202]}, "gradients/encoder1.att.query_dense.weight": {"_type": "histogram", "values": [1.0, 0.0, 1.0, 0.0, 0.0, 1.0, 2.0, 2.0, 1.0, 1.0, 2.0, 2.0, 1.0, 0.0, 3.0, 5.0, 5.0, 7.0, 6.0, 8.0, 26.0, 36.0, 277.0, 476.0, 78.0, 25.0, 12.0, 13.0, 11.0, 3.0, 3.0, 6.0, 0.0, 1.0, 0.0, 2.0, 1.0, 1.0, 1.0, 0.0, 0.0, 0.0, 1.0, 1.0, 1.0, 0.0, 0.0, 0.0, 0.0, 0.0, 0.0, 0.0, 0.0, 0.0, 0.0, 0.0, 0.0, 0.0, 0.0, 0.0, 0.0, 0.0, 0.0, 1.0], "bins": [-0.19963818788528442, -0.1910240352153778, -0.1824098825454712, -0.17379574477672577, -0.16518159210681915, -0.15656743943691254, -0.14795330166816711, -0.1393391489982605, -0.13072499632835388, -0.12211084365844727, -0.11349669843912125, -0.10488255321979523, -0.09626840054988861, -0.087654247879982, -0.07904010266065598, -0.07042595744132996, -0.06181180477142334, -0.053197652101516724, -0.04458349943161011, -0.035969361662864685, -0.02735520899295807, -0.018741056323051453, -0.01012691855430603, -0.001512765884399414, 0.007101386785507202, 0.01571553945541382, 0.024329692125320435, 0.03294382989406586, 0.04155798256397247, 0.05017213523387909, 0.05878627300262451, 0.06740042567253113, 0.07601460814476013, 0.08462876081466675, 0.09324291348457336, 0.10185705125331879, 0.1104712039232254, 0.11908535659313202, 0.12769949436187744, 0.13631364703178406, 0.14492779970169067, 0.1535419523715973, 0.1621561050415039, 0.17077024281024933, 0.17938439548015594, 0.18799854815006256, 0.19661268591880798, 0.2052268385887146, 0.21384099125862122, 0.22245514392852783, 0.23106929659843445, 0.23968343436717987, 0.2482975870370865, 0.2569117546081543, 0.2655258774757385, 0.27414003014564514, 0.28275418281555176, 0.2913683354854584, 0.299982488155365, 0.3085966408252716, 0.3172107934951782, 0.32582491636276245, 0.33443906903266907, 0.3430532217025757, 0.3516673743724823]}, "gradients/embedLayer.pos_embeddings": {"_type": "histogram", "values": [1.0, 0.0, 0.0, 1.0, 1.0, 1.0, 1.0, 3.0, 1.0, 0.0, 0.0, 1.0, 1.0, 5.0, 3.0, 7.0, 7.0, 8.0, 12.0, 16.0, 14.0, 29.0, 38.0, 61.0, 133.0, 3932.0, 4570.0, 172.0, 57.0, 44.0, 22.0, 19.0, 14.0, 9.0, 5.0, 6.0, 1.0, 2.0, 4.0, 2.0, 1.0, 2.0, 1.0, 1.0, 3.0, 0.0, 1.0, 0.0, 0.0, 1.0, 0.0, 0.0, 0.0, 2.0, 0.0, 0.0, 0.0, 0.0, 0.0, 0.0, 0.0, 0.0, 0.0, 1.0], "bins": [-0.02074974775314331, -0.019951852038502693, -0.019153956323862076, -0.018356062471866608, -0.01755816675722599, -0.016760271042585373, -0.015962375327944756, -0.015164480544626713, -0.01436658576130867, -0.013568690046668053, -0.012770794332027435, -0.011972899548709393, -0.011175003834068775, -0.010377109050750732, -0.009579213336110115, -0.008781318552792072, -0.007983422838151455, -0.0071855271235108376, -0.006387632340192795, -0.005589736625552177, -0.00479184091091156, -0.003993947058916092, -0.0031960513442754745, -0.002398155629634857, -0.0016002599149942398, -0.0008023642003536224, -4.470348358154297e-06, 0.0007934253662824631, 0.0015913210809230804, 0.002389216795563698, 0.003187110647559166, 0.003985006362199783, 0.004782902076840401, 0.005580797791481018, 0.0063786935061216354, 0.007176587358117104, 0.007974483072757721, 0.008772378787398338, 0.009570274502038956, 0.010368168354034424, 0.011166064068675041, 0.011963959783315659, 0.012761855497956276, 0.013559751212596893, 0.014357645064592361, 0.015155540779232979, 0.015953436493873596, 0.016751330345869064, 0.01754922792315483, 0.0183471217751503, 0.019145017489790916, 0.019942913204431534, 0.020740807056427002, 0.02153870463371277, 0.022336598485708237, 0.023134494200348854, 0.02393238991498947, 0.02473028376698494, 0.025528179481625557, 0.026326075196266174, 0.02712397091090679, 0.02792186662554741, 0.028719760477542877, 0.029517656192183495, 0.030315551906824112]}, "gradients/embedLayer.emebdding_layer.weight": {"_type": "histogram", "values": [3.0, 0.0, 1.0, 0.0, 2.0, 4.0, 1.0, 4.0, 5.0, 5.0, 6.0, 10.0, 13.0, 18.0, 25.0, 23.0, 46.0, 73.0, 110.0, 155.0, 182.0, 251.0, 369.0, 625.0, 817.0, 1167.0, 1921.0, 3416.0, 6059.0, 12526.0, 28808.0, 36691.0, 17307.0, 7430.0, 3550.0, 1982.0, 1152.0, 776.0, 548.0, 410.0, 342.0, 267.0, 263.0, 136.0, 136.0, 84.0, 61.0, 43.0, 36.0, 15.0, 29.0, 17.0, 16.0, 12.0, 10.0, 11.0, 6.0, 6.0, 4.0, 3.0, 2.0, 3.0, 5.0, 2.0], "bins": [-0.3220329284667969, -0.3117096722126007, -0.30138641595840454, -0.2910631597042084, -0.2807399034500122, -0.27041664719581604, -0.2600933909416199, -0.2497701197862625, -0.23944686353206635, -0.22912360727787018, -0.218800351023674, -0.20847707986831665, -0.19815382361412048, -0.18783056735992432, -0.17750731110572815, -0.16718405485153198, -0.15686079859733582, -0.14653754234313965, -0.13621428608894348, -0.12589102983474731, -0.11556777358055115, -0.10524450242519379, -0.09492124617099762, -0.08459798991680145, -0.07427473366260529, -0.06395146250724792, -0.05362820625305176, -0.04330494999885559, -0.032981693744659424, -0.022658437490463257, -0.01233518123626709, -0.002011924982070923, 0.008311361074447632, 0.0186346173286438, 0.028957873582839966, 0.03928112983703613, 0.0496043860912323, 0.05992764234542847, 0.07025089859962463, 0.0805741548538208, 0.09089742600917816, 0.10122068226337433, 0.1115439385175705, 0.12186719477176666, 0.13219046592712402, 0.1425137221813202, 0.15283697843551636, 0.16316023468971252, 0.1734834909439087, 0.18380674719810486, 0.19413000345230103, 0.2044532597064972, 0.21477651596069336, 0.22509977221488953, 0.2354230433702469, 0.24574629962444305, 0.256069540977478, 0.2663928270339966, 0.27671608328819275, 0.2870393395423889, 0.2973625957965851, 0.30768585205078125, 0.3180091083049774, 0.3283323645591736, 0.33865562081336975]}, "gradients/embedLayer.emebdding_layer.bias": {"_type": "histogram", "values": [1.0, 0.0, 0.0, 0.0, 0.0, 1.0, 0.0, 0.0, 1.0, 0.0, 0.0, 1.0, 1.0, 0.0, 0.0, 0.0, 1.0, 0.0, 2.0, 1.0, 0.0, 2.0, 1.0, 1.0, 1.0, 0.0, 0.0, 0.0, 0.0, 0.0, 0.0, 1.0, 0.0, 0.0, 0.0, 0.0, 1.0, 0.0, 1.0, 0.0, 1.0, 1.0, 4.0, 1.0, 0.0, 1.0, 1.0, 0.0, 0.0, 0.0, 0.0, 2.0, 1.0, 0.0, 0.0, 0.0, 0.0, 0.0, 0.0, 0.0, 1.0, 0.0, 1.0, 1.0], "bins": [-0.02674981579184532, -0.025956707075238228, -0.025163598358631134, -0.02437048964202404, -0.023577380925416946, -0.022784272208809853, -0.02199116349220276, -0.021198054775595665, -0.02040494605898857, -0.019611837342381477, -0.018818728625774384, -0.01802562177181244, -0.017232511192560196, -0.01643940433859825, -0.01564629375934601, -0.014853185974061489, -0.014060077257454395, -0.013266968540847301, -0.012473859824240208, -0.011680751107633114, -0.010887643322348595, -0.0100945346057415, -0.009301425889134407, -0.008508317172527313, -0.007715208455920219, -0.006922099739313126, -0.006128991022706032, -0.005335882306098938, -0.004542773589491844, -0.0037496648728847504, -0.0029565561562776566, -0.0021634474396705627, -0.001370338723063469, -0.0005772300064563751, 0.0002158787101507187, 0.0010089874267578125, 0.0018020961433649063, 0.002595204859972, 0.003388313576579094, 0.004181422293186188, 0.0049745310097932816, 0.005767639726400375, 0.006560748443007469, 0.007353857159614563, 0.008146965876221657, 0.008940073661506176, 0.00973318237811327, 0.010526291094720364, 0.011319399811327457, 0.012112508527934551, 0.012905617244541645, 0.013698725961148739, 0.014491834677755833, 0.015284943394362926, 0.016078051179647446, 0.01687115989625454, 0.017664268612861633, 0.018457377329468727, 0.01925048604607582, 0.020043594762682915, 0.02083670347929001, 0.021629812195897102, 0.022422920912504196, 0.02321602962911129, 0.024009138345718384]}, "gradients/conv23.conv.weight": {"_type": "histogram", "values": [2.0, 1.0, 0.0, 0.0, 2.0, 0.0, 2.0, 5.0, 5.0, 7.0, 7.0, 17.0, 20.0, 26.0, 32.0, 54.0, 65.0, 64.0, 144.0, 191.0, 228.0, 367.0, 539.0, 707.0, 997.0, 1373.0, 1919.0, 2992.0, 5719.0, 3413.0, 2205.0, 1520.0, 1143.0, 909.0, 705.0, 583.0, 435.0, 323.0, 231.0, 177.0, 159.0, 116.0, 72.0, 45.0, 39.0, 28.0, 21.0, 18.0, 5.0, 3.0, 4.0, 4.0, 0.0, 1.0, 1.0, 0.0, 0.0, 0.0, 1.0, 0.0, 0.0, 0.0, 1.0, 1.0], "bins": [-0.2089778333902359, -0.20170429348945618, -0.19443073868751526, -0.18715718388557434, -0.17988364398479462, -0.1726101040840149, -0.16533654928207397, -0.15806299448013306, -0.15078945457935333, -0.1435159146785736, -0.1362423598766327, -0.12896880507469177, -0.12169526517391205, -0.11442171782255173, -0.1071481704711914, -0.09987462311983109, -0.09260107576847076, -0.08532752841711044, -0.07805398106575012, -0.0707804411649704, -0.06350688636302948, -0.05623333156108856, -0.04895979166030884, -0.041686251759529114, -0.034412696957588196, -0.027139142155647278, -0.019865602254867554, -0.01259206235408783, -0.005318507552146912, 0.0019550472497940063, 0.00922858715057373, 0.016502127051353455, 0.02377566695213318, 0.031049221754074097, 0.03832276165485382, 0.045596301555633545, 0.05286985635757446, 0.06014341115951538, 0.0674169510602951, 0.07469049096107483, 0.08196404576301575, 0.08923760056495667, 0.09651114046573639, 0.10378468036651611, 0.11105823516845703, 0.11833178997039795, 0.12560532987117767, 0.1328788697719574, 0.14015242457389832, 0.14742597937583923, 0.15469951927661896, 0.16197305917739868, 0.1692466139793396, 0.17652016878128052, 0.18379370868206024, 0.19106724858283997, 0.19834080338478088, 0.2056143581867218, 0.21288789808750153, 0.22016143798828125, 0.22743499279022217, 0.23470854759216309, 0.2419820874929428, 0.24925562739372253, 0.25652918219566345]}, "gradients/conv23.conv.bias": {"_type": "histogram", "values": [1.0, 0.0, 0.0, 0.0, 0.0, 0.0, 0.0, 0.0, 1.0, 1.0, 0.0, 0.0, 1.0, 0.0, 0.0, 0.0, 0.0, 0.0, 1.0, 0.0, 0.0, 1.0, 1.0, 1.0, 0.0, 0.0, 1.0, 5.0, 0.0, 3.0, 0.0, 1.0, 1.0, 1.0, 1.0, 0.0, 1.0, 1.0, 1.0, 1.0, 0.0, 1.0, 1.0, 0.0, 1.0, 0.0, 0.0, 0.0, 1.0, 0.0, 0.0, 0.0, 1.0, 1.0, 0.0, 0.0, 0.0, 0.0, 0.0, 0.0, 0.0, 0.0, 0.0, 1.0], "bins": [-0.041811324656009674, -0.040401309728622437, -0.0389912910759449, -0.03758127614855766, -0.03617125749588013, -0.03476124256849289, -0.03335122764110565, -0.031941212713718414, -0.03053119406104088, -0.02912117727100849, -0.027711160480976105, -0.026301145553588867, -0.02489112876355648, -0.023481111973524094, -0.022071097046136856, -0.02066108025610447, -0.019251063466072083, -0.017841046676039696, -0.01643102988600731, -0.015021014958620071, -0.013610998168587685, -0.012200981378555298, -0.01079096645116806, -0.009380947798490524, -0.007970932871103287, -0.006560917943716049, -0.005150899291038513, -0.0037408843636512756, -0.002330869436264038, -0.0009208507835865021, 0.0004891641438007355, 0.0018991827964782715, 0.003309197723865509, 0.004719212651252747, 0.006129231303930283, 0.00753924623131752, 0.008949264883995056, 0.010359279811382294, 0.011769294738769531, 0.013179313391447067, 0.014589328318834305, 0.015999343246221542, 0.01740936189889908, 0.018819376826286316, 0.020229393616318703, 0.02163941040635109, 0.023049425333738327, 0.024459442123770714, 0.0258694589138031, 0.027279475703835487, 0.028689492493867874, 0.03009950742125511, 0.03150952607393265, 0.032919541001319885, 0.03432955592870712, 0.03573957085609436, 0.037149589508771896, 0.03855960816144943, 0.03996962308883667, 0.04137963801622391, 0.042789652943611145, 0.04419967159628868, 0.04560968652367592, 0.047019705176353455, 0.04842972010374069]}, "gradients/conv22.conv.weight": {"_type": "histogram", "values": [5.0, 3.0, 2.0, 5.0, 3.0, 5.0, 7.0, 7.0, 4.0, 8.0, 9.0, 16.0, 18.0, 30.0, 23.0, 36.0, 41.0, 56.0, 102.0, 90.0, 138.0, 169.0, 207.0, 276.0, 309.0, 425.0, 537.0, 759.0, 907.0, 1455.0, 1728.0, 2325.0, 4776.0, 2550.0, 2092.0, 1772.0, 1418.0, 1084.0, 833.0, 619.0, 553.0, 421.0, 376.0, 319.0, 199.0, 177.0, 159.0, 122.0, 97.0, 83.0, 68.0, 59.0, 35.0, 30.0, 28.0, 19.0, 11.0, 9.0, 11.0, 10.0, 4.0, 2.0, 3.0, 4.0], "bins": [-0.08161767572164536, -0.0791063904762268, -0.07659511268138885, -0.0740838274359703, -0.07157254219055176, -0.0690612643957138, -0.06654997915029526, -0.06403869390487671, -0.06152741611003876, -0.05901613458991051, -0.05650485306978226, -0.05399356782436371, -0.05148228630423546, -0.04897100478410721, -0.04645971953868866, -0.04394843801856041, -0.04143715649843216, -0.03892587497830391, -0.03641459345817566, -0.03390330821275711, -0.03139202669262886, -0.02888074517250061, -0.026369459927082062, -0.02385817840695381, -0.02134689688682556, -0.018835611641407013, -0.01632433384656906, -0.013813048601150513, -0.011301763355731964, -0.008790485560894012, -0.006279200315475464, -0.003767922520637512, -0.0012566298246383667, 0.0012546554207801819, 0.0037659332156181335, 0.006277218461036682, 0.008788496255874634, 0.011299781501293182, 0.013811066746711731, 0.016322344541549683, 0.01883362978696823, 0.02134491130709648, 0.02385619282722473, 0.02636747807264328, 0.02887875959277153, 0.03139004111289978, 0.03390132635831833, 0.03641260787844658, 0.03892388939857483, 0.04143517091870308, 0.04394645243883133, 0.04645773768424988, 0.04896901920437813, 0.05148030072450638, 0.05399158596992493, 0.05650286749005318, 0.05901414901018143, 0.06152543053030968, 0.06403671205043793, 0.06654799729585648, 0.06905928254127502, 0.07157056033611298, 0.07408184558153152, 0.07659312337636948, 0.07910440862178802]}, "gradients/conv22.conv.bias": {"_type": "histogram", "values": [1.0, 0.0, 1.0, 0.0, 0.0, 0.0, 0.0, 0.0, 1.0, 0.0, 0.0, 1.0, 3.0, 0.0, 0.0, 2.0, 0.0, 0.0, 2.0, 1.0, 3.0, 0.0, 2.0, 1.0, 2.0, 1.0, 1.0, 1.0, 0.0, 0.0, 0.0, 1.0, 0.0, 0.0, 0.0, 1.0, 1.0, 0.0, 1.0, 1.0, 1.0, 1.0, 0.0, 0.0, 0.0, 1.0, 0.0, 0.0, 0.0, 0.0, 0.0, 0.0, 0.0, 0.0, 0.0, 0.0, 0.0, 0.0, 0.0, 0.0, 0.0, 0.0, 0.0, 1.0], "bins": [-0.037210263311862946, -0.03544047847390175, -0.03367068991065025, -0.031900905072689056, -0.03013111837208271, -0.028361331671476364, -0.026591544970870018, -0.024821758270263672, -0.023051973432302475, -0.02128218673169613, -0.019512400031089783, -0.017742613330483437, -0.01597282662987709, -0.014203039929270744, -0.012433255091309547, -0.010663468390703201, -0.008893681690096855, -0.007123894989490509, -0.005354110151529312, -0.0035843215882778168, -0.0018145367503166199, -4.474818706512451e-05, 0.0017250366508960724, 0.0034948214888572693, 0.005264610052108765, 0.0070343948900699615, 0.008804183453321457, 0.010573968291282654, 0.01234375312924385, 0.014113541692495346, 0.015883326530456543, 0.01765311509370804, 0.019422899931669235, 0.021192684769630432, 0.022962473332881927, 0.024732258170843124, 0.02650204673409462, 0.028271831572055817, 0.030041616410017014, 0.03181140497326851, 0.033581189811229706, 0.0353509783744812, 0.0371207632124424, 0.038890548050403595, 0.04066033661365509, 0.04243012145161629, 0.04419991001486778, 0.04596969485282898, 0.047739483416080475, 0.04950926825404167, 0.05127905309200287, 0.053048841655254364, 0.05481862649321556, 0.05658841133117676, 0.05835819989442825, 0.06012798845767975, 0.061897773295640945, 0.06366755813360214, 0.06543734669685364, 0.06720712780952454, 0.06897691637277603, 0.07074670493602753, 0.07251649349927902, 0.07428627461194992, 0.07605606317520142]}, "gradients/conv21.conv.weight": {"_type": "histogram", "values": [3.0, 2.0, 0.0, 2.0, 3.0, 3.0, 0.0, 1.0, 2.0, 3.0, 2.0, 4.0, 2.0, 1.0, 2.0, 2.0, 8.0, 6.0, 8.0, 5.0, 10.0, 19.0, 17.0, 36.0, 29.0, 42.0, 44.0, 79.0, 97.0, 147.0, 205.0, 299.0, 435.0, 734.0, 1063.0, 1748.0, 2861.0, 2065.0, 1192.0, 828.0, 508.0, 346.0, 297.0, 180.0, 102.0, 82.0, 70.0, 49.0, 35.0, 15.0, 15.0, 21.0, 14.0, 9.0, 12.0, 16.0, 12.0, 11.0, 3.0, 5.0, 4.0, 4.0, 2.0, 3.0], "bins": [-0.22082707285881042, -0.2148241400718689, -0.20882119238376617, -0.20281824469566345, -0.19681531190872192, -0.1908123791217804, -0.18480943143367767, -0.17880648374557495, -0.17280355095863342, -0.1668006181716919, -0.16079767048358917, -0.15479472279548645, -0.14879179000854492, -0.1427888572216034, -0.13678590953350067, -0.13078296184539795, -0.12478002905845642, -0.1187770888209343, -0.11277414858341217, -0.10677120834589005, -0.10076826810836792, -0.09476533532142639, -0.08876238763332367, -0.08275943994522095, -0.07675650715827942, -0.07075357437133789, -0.06475062668323517, -0.058747678995132446, -0.05274474620819092, -0.04674181342124939, -0.04073886573314667, -0.034735918045043945, -0.02873300015926361, -0.022730067372322083, -0.01672711968421936, -0.010724171996116638, -0.00472123920917511, 0.0012816935777664185, 0.007284641265869141, 0.013287588953971863, 0.01929052174091339, 0.02529345452785492, 0.03129640221595764, 0.037299349904060364, 0.04330228269100189, 0.04930522292852402, 0.05530816316604614, 0.06131110340356827, 0.0673140436410904, 0.07331698387861252, 0.07931992411613464, 0.08532286435365677, 0.0913258045911789, 0.09732874482870102, 0.10333168506622314, 0.10933462530374527, 0.1153375655412674, 0.12134050577878952, 0.12734344601631165, 0.13334637880325317, 0.1393493264913559, 0.14535227417945862, 0.15135520696640015, 0.15735813975334167, 0.1633610874414444]}, "gradients/conv21.conv.bias": {"_type": "histogram", "values": [1.0, 0.0, 1.0, 0.0, 0.0, 0.0, 0.0, 0.0, 0.0, 1.0, 0.0, 0.0, 1.0, 0.0, 2.0, 0.0, 0.0, 1.0, 2.0, 1.0, 0.0, 0.0, 0.0, 4.0, 2.0, 2.0, 0.0, 2.0, 1.0, 1.0, 0.0, 0.0, 0.0, 1.0, 1.0, 0.0, 3.0, 0.0, 2.0, 0.0, 0.0, 0.0, 0.0, 0.0, 1.0, 0.0, 0.0, 0.0, 0.0, 0.0, 0.0, 0.0, 0.0, 0.0, 1.0, 0.0, 0.0, 0.0, 0.0, 0.0, 0.0, 0.0, 0.0, 1.0], "bins": [-0.07932615280151367, -0.07632138580083847, -0.07331661880016327, -0.07031184434890747, -0.06730707734823227, -0.06430231034755707, -0.061297543346881866, -0.058292776346206665, -0.055288009345531464, -0.052283238619565964, -0.04927847161889076, -0.04627370461821556, -0.04326893389225006, -0.04026416689157486, -0.03725939989089966, -0.03425462916493416, -0.031249862164258957, -0.028245095163583755, -0.025240324437618256, -0.022235557436943054, -0.019230790436267853, -0.01622602343559265, -0.01322125643491745, -0.010216481983661652, -0.00721171498298645, -0.004206947982311249, -0.0012021809816360474, 0.001802586019039154, 0.0048073530197143555, 0.007812127470970154, 0.010816894471645355, 0.013821661472320557, 0.016826428472995758, 0.01983119547367096, 0.02283596247434616, 0.025840729475021362, 0.02884550392627716, 0.03185027092695236, 0.034855037927627563, 0.037859804928302765, 0.040864571928977966, 0.04386933892965317, 0.046874113380908966, 0.04987888038158417, 0.05288364738225937, 0.05588841438293457, 0.05889318138360977, 0.06189795210957527, 0.06490272283554077, 0.06790748238563538, 0.07091225683689117, 0.07391702383756638, 0.07692179083824158, 0.07992656528949738, 0.08293132483959198, 0.08593609929084778, 0.08894086629152298, 0.09194563329219818, 0.09495040029287338, 0.09795516729354858, 0.10095993429422379, 0.10396470129489899, 0.10696947574615479, 0.10997424274682999, 0.11297900974750519]}, "gradients/conv13.conv.weight": {"_type": "histogram", "values": [2.0, 2.0, 6.0, 2.0, 3.0, 5.0, 3.0, 8.0, 5.0, 6.0, 16.0, 22.0, 31.0, 32.0, 52.0, 70.0, 100.0, 178.0, 228.0, 314.0, 574.0, 804.0, 1722.0, 696.0, 496.0, 325.0, 291.0, 209.0, 179.0, 149.0, 82.0, 59.0, 45.0, 33.0, 33.0, 26.0, 23.0, 14.0, 14.0, 16.0, 8.0, 6.0, 6.0, 3.0, 3.0, 4.0, 1.0, 0.0, 0.0, 0.0, 0.0, 1.0, 0.0, 2.0, 0.0, 0.0, 0.0, 0.0, 0.0, 0.0, 0.0, 0.0, 0.0, 3.0], "bins": [-0.10444030165672302, -0.0997627004981041, -0.09508509188890457, -0.09040749073028564, -0.08572988212108612, -0.0810522809624672, -0.07637467980384827, -0.07169707119464874, -0.06701947003602982, -0.06234186515212059, -0.057664260268211365, -0.05298665910959244, -0.04830905422568321, -0.04363144934177399, -0.03895384818315506, -0.034276239573955536, -0.02959863841533661, -0.024921037256717682, -0.020243428647518158, -0.015565827488899231, -0.010888218879699707, -0.00621061772108078, -0.001533016562461853, 0.003144592046737671, 0.007822193205356598, 0.012499794363975525, 0.01717740297317505, 0.021855011582374573, 0.026532605290412903, 0.031210213899612427, 0.03588782250881195, 0.04056541621685028, 0.045243039727211, 0.04992064833641052, 0.05459824204444885, 0.059275850653648376, 0.0639534592628479, 0.06863105297088623, 0.07330866158008575, 0.07798627018928528, 0.0826638713479042, 0.08734147250652313, 0.09201908111572266, 0.09669668227434158, 0.10137428343296051, 0.10605189204216003, 0.11072949320077896, 0.11540710180997849, 0.12008470296859741, 0.12476230412721634, 0.12943992018699646, 0.1341175138950348, 0.13879512250423431, 0.14347273111343384, 0.14815032482147217, 0.1528279334306717, 0.15750554203987122, 0.16218313574790955, 0.16686074435710907, 0.1715383529663086, 0.17621594667434692, 0.18089355528354645, 0.18557116389274597, 0.1902487576007843, 0.19492636620998383]}, "gradients/conv13.conv.bias": {"_type": "histogram", "values": [1.0, 0.0, 0.0, 0.0, 0.0, 0.0, 0.0, 0.0, 0.0, 0.0, 1.0, 0.0, 1.0, 0.0, 1.0, 0.0, 0.0, 0.0, 0.0, 0.0, 0.0, 3.0, 0.0, 0.0, 1.0, 1.0, 0.0, 0.0, 1.0, 0.0, 0.0, 0.0, 0.0, 1.0, 1.0, 0.0, 0.0, 1.0, 0.0, 1.0, 0.0, 0.0, 0.0, 0.0, 0.0, 0.0, 0.0, 0.0, 0.0, 1.0, 0.0, 0.0, 0.0, 0.0, 0.0, 0.0, 0.0, 0.0, 0.0, 0.0, 0.0, 0.0, 0.0, 1.0], "bins": [-0.09788676351308823, -0.09399650990962982, -0.09010625630617142, -0.08621600270271301, -0.0823257565498352, -0.0784355029463768, -0.0745452493429184, -0.07065499573945999, -0.06676474213600159, -0.06287449598312378, -0.058984242379665375, -0.05509398877620697, -0.051203735172748566, -0.04731348529458046, -0.043423231691122055, -0.03953298181295395, -0.035642728209495544, -0.03175247460603714, -0.027862221002578735, -0.023971974849700928, -0.020081721246242523, -0.01619146764278412, -0.012301214039325714, -0.00841096043586731, -0.004520706832408905, -0.0006304606795310974, 0.003259792923927307, 0.007150046527385712, 0.011040300130844116, 0.01493055373430252, 0.01882079988718033, 0.022711053490638733, 0.026601314544677734, 0.03049156814813614, 0.03438182175159454, 0.03827206790447235, 0.042162321507930756, 0.04605257511138916, 0.049942828714847565, 0.05383308231830597, 0.05772332847118378, 0.06161358207464218, 0.06550383567810059, 0.06939408928155899, 0.0732843428850174, 0.0771745964884758, 0.08106484264135361, 0.08495509624481201, 0.08884534984827042, 0.09273560345172882, 0.09662584960460663, 0.10051611065864563, 0.10440635681152344, 0.10829661041498184, 0.11218686401844025, 0.11607711017131805, 0.11996737122535706, 0.12385761737823486, 0.12774786353111267, 0.13163812458515167, 0.13552837073802948, 0.13941863179206848, 0.1433088779449463, 0.1471991389989853, 0.1510893851518631]}, "gradients/conv12.conv.weight": {"_type": "histogram", "values": [3.0, 2.0, 1.0, 0.0, 2.0, 2.0, 4.0, 5.0, 2.0, 8.0, 8.0, 8.0, 8.0, 13.0, 12.0, 5.0, 26.0, 38.0, 34.0, 57.0, 68.0, 122.0, 139.0, 231.0, 336.0, 395.0, 520.0, 764.0, 943.0, 774.0, 603.0, 433.0, 307.0, 235.0, 189.0, 152.0, 116.0, 101.0, 59.0, 47.0, 39.0, 15.0, 13.0, 9.0, 10.0, 9.0, 10.0, 5.0, 3.0, 4.0, 1.0, 3.0, 0.0, 1.0, 6.0, 3.0, 0.0, 0.0, 1.0, 2.0, 1.0, 1.0, 1.0, 3.0], "bins": [-0.10418760776519775, -0.10050833225250244, -0.09682905673980713, -0.09314978122711182, -0.0894705057144165, -0.08579123020172119, -0.08211194723844528, -0.07843267172574997, -0.07475339621305466, -0.07107412070035934, -0.06739484518766403, -0.06371556222438812, -0.06003629043698311, -0.056357014924287796, -0.052677735686302185, -0.04899846017360687, -0.04531918466091156, -0.04163990914821625, -0.037960633635520935, -0.03428135812282562, -0.03060208261013031, -0.0269227996468544, -0.023243524134159088, -0.019564248621463776, -0.015884973108768463, -0.01220569759607315, -0.008526422083377838, -0.004847146570682526, -0.0011678636074066162, 0.0025114119052886963, 0.006190687417984009, 0.009869962930679321, 0.013549238443374634, 0.017228513956069946, 0.02090778946876526, 0.02458706498146057, 0.028266340494155884, 0.03194562345743179, 0.035624898970127106, 0.03930417448282242, 0.04298344999551773, 0.04666272550821304, 0.050342001020908356, 0.05402127653360367, 0.05770055949687958, 0.06137983500957489, 0.0650591105222702, 0.06873838603496552, 0.07241766154766083, 0.07609693706035614, 0.07977621257305145, 0.08345548808574677, 0.08713476359844208, 0.09081403911113739, 0.0944933220744133, 0.09817259758710861, 0.10185187309980392, 0.10553114861249924, 0.10921042412519455, 0.11288970708847046, 0.11656898260116577, 0.12024825811386108, 0.1239275336265564, 0.1276068091392517, 0.13128608465194702]}, "gradients/conv12.conv.bias": {"_type": "histogram", "values": [1.0, 0.0, 0.0, 0.0, 0.0, 0.0, 0.0, 0.0, 0.0, 0.0, 1.0, 0.0, 2.0, 0.0, 0.0, 0.0, 1.0, 1.0, 1.0, 2.0, 1.0, 0.0, 0.0, 1.0, 0.0, 0.0, 0.0, 0.0, 0.0, 0.0, 0.0, 0.0, 1.0, 2.0, 0.0, 0.0, 0.0, 0.0, 0.0, 0.0, 0.0, 0.0, 0.0, 0.0, 0.0, 0.0, 1.0, 0.0, 0.0, 0.0, 0.0, 0.0, 0.0, 0.0, 0.0, 0.0, 0.0, 0.0, 0.0, 0.0, 0.0, 0.0, 0.0, 1.0], "bins": [-0.14309997856616974, -0.13545948266983032, -0.1278190016746521, -0.12017850577831268, -0.11253801733255386, -0.10489752888679504, -0.09725703299045563, -0.08961654454469681, -0.08197605609893799, -0.07433556765317917, -0.06669507920742035, -0.05905458331108093, -0.05141409486532211, -0.04377360641956329, -0.03613311052322388, -0.028492622077465057, -0.020852133631706238, -0.013211637735366821, -0.005571156740188599, 0.002069339156150818, 0.00970982015132904, 0.017350316047668457, 0.024990811944007874, 0.032631292939186096, 0.04027178883552551, 0.04791228473186493, 0.05555276572704315, 0.06319326162338257, 0.07083375751972198, 0.07847423851490021, 0.08611473441123962, 0.09375521540641785, 0.10139572620391846, 0.10903622210025787, 0.1166767030954361, 0.12431719899177551, 0.13195767998695374, 0.13959817588329315, 0.14723867177963257, 0.1548791527748108, 0.1625196486711502, 0.17016014456748962, 0.17780062556266785, 0.18544112145900726, 0.19308161735534668, 0.2007220983505249, 0.20836259424686432, 0.21600307524204254, 0.22364357113838196, 0.23128405213356018, 0.2389245480298996, 0.246565043926239, 0.25420552492141724, 0.26184600591659546, 0.26948651671409607, 0.2771269977092743, 0.2847675085067749, 0.2924079895019531, 0.30004847049713135, 0.30768895149230957, 0.3153294622898102, 0.3229699432849884, 0.3306104242801666, 0.33825093507766724, 0.34589141607284546]}, "gradients/conv11.conv.weight": {"_type": "histogram", "values": [2.0, 1.0, 3.0, 6.0, 3.0, 5.0, 4.0, 3.0, 5.0, 4.0, 5.0, 6.0, 12.0, 10.0, 11.0, 9.0, 7.0, 15.0, 19.0, 23.0, 18.0, 28.0, 31.0, 49.0, 47.0, 55.0, 65.0, 104.0, 104.0, 124.0, 96.0, 113.0, 77.0, 76.0, 81.0, 56.0, 51.0, 51.0, 37.0, 38.0, 31.0, 41.0, 30.0, 32.0, 26.0, 31.0, 14.0, 11.0, 12.0, 12.0, 9.0, 8.0, 1.0, 3.0, 1.0, 1.0, 1.0, 1.0, 1.0, 3.0, 2.0, 1.0, 0.0, 2.0], "bins": [-0.10657625645399094, -0.10302530974149704, -0.09947435557842255, -0.09592340886592865, -0.09237246215343475, -0.08882150799036026, -0.08527056127786636, -0.08171960711479187, -0.07816866040229797, -0.07461771368980408, -0.07106675952672958, -0.06751581281423569, -0.0639648586511612, -0.0604139119386673, -0.0568629652261734, -0.053312014788389206, -0.04976106435060501, -0.046210113912820816, -0.04265916347503662, -0.039108216762542725, -0.03555726259946823, -0.032006315886974335, -0.028455369174480438, -0.024904415011405945, -0.02135346829891205, -0.017802521586418152, -0.014251567423343658, -0.010700620710849762, -0.0071496739983558655, -0.003598719835281372, -4.7773122787475586e-05, 0.003503181040287018, 0.007054135203361511, 0.010605081915855408, 0.014156036078929901, 0.017706982791423798, 0.02125793695449829, 0.024808883666992188, 0.028359830379486084, 0.03191078454256058, 0.035461731255054474, 0.03901267796754837, 0.042563632130622864, 0.04611457884311676, 0.04966552555561066, 0.05321647971868515, 0.05676742643117905, 0.06031837686896324, 0.06386932730674744, 0.06742027401924133, 0.07097122818231583, 0.07452217489480972, 0.07807312905788422, 0.08162407577037811, 0.08517502248287201, 0.0887259691953659, 0.0922769233584404, 0.09582787752151489, 0.09937882423400879, 0.10292977094650269, 0.10648071765899658, 0.11003167182207108, 0.11358261853456497, 0.11713357269763947, 0.12068451941013336]}, "gradients/conv11.conv.bias": {"_type": "histogram", "values": [1.0, 0.0, 0.0, 0.0, 0.0, 0.0, 0.0, 0.0, 0.0, 0.0, 2.0, 0.0, 0.0, 0.0, 1.0, 0.0, 0.0, 1.0, 1.0, 1.0, 0.0, 2.0, 0.0, 0.0, 2.0, 1.0, 1.0, 0.0, 0.0, 0.0, 0.0, 1.0, 0.0, 0.0, 0.0, 0.0, 0.0, 0.0, 0.0, 1.0, 0.0, 0.0, 0.0, 0.0, 0.0, 0.0, 0.0, 0.0, 0.0, 0.0, 0.0, 0.0, 0.0, 0.0, 0.0, 0.0, 0.0, 0.0, 0.0, 0.0, 0.0, 0.0, 0.0, 1.0], "bins": [-0.5807629823684692, -0.5543348789215088, -0.5279067158699036, -0.5014786124229431, -0.4750504493713379, -0.44862234592437744, -0.4221941828727722, -0.39576607942581177, -0.36933791637420654, -0.3429098129272461, -0.31648167967796326, -0.2900535464286804, -0.2636254131793976, -0.23719727993011475, -0.2107691466808319, -0.18434101343154907, -0.15791288018226624, -0.1314847469329834, -0.10505661368370056, -0.07862848043441772, -0.052200376987457275, -0.02577221393585205, 0.0006558895111083984, 0.027084052562713623, 0.05351215600967407, 0.0799403190612793, 0.10636842250823975, 0.13279658555984497, 0.15922468900680542, 0.18565285205841064, 0.2120809555053711, 0.23850911855697632, 0.26493722200393677, 0.2913653254508972, 0.31779348850250244, 0.3442215919494629, 0.3706497550010681, 0.39707785844802856, 0.4235060214996338, 0.44993412494659424, 0.47636228799819946, 0.5027903914451599, 0.5292185544967651, 0.5556466579437256, 0.5820748209953308, 0.6085029244422913, 0.6349310874938965, 0.6613591909408569, 0.6877872943878174, 0.7142154574394226, 0.7406436204910278, 0.7670717239379883, 0.7934998273849487, 0.819927990436554, 0.8463561534881592, 0.8727842569351196, 0.8992123603820801, 0.9256405234336853, 0.9520686268806458, 0.978496789932251, 1.0049248933792114, 1.0313529968261719, 1.0577812194824219, 1.0842093229293823, 1.1106374263763428]}, "epoch": 149, "loss_hgr": 0.06399989991025491, "loss_id": 0.25091878549619157, "loss_icgd": 0.6002035648172552, "loss": 0.3149186861153805, "acc_hgr": 0.9969696998596191, "acc_id": 0.9745454788208008, "val_loss_hgr": 0.37796730691736397, "val_loss_id": 1.6629092680324207, "val_loss_icgd": 0.5096948539127003, "val_loss": 2.040876579284668, "val_acc_hgr": 0.9000000357627869, "val_acc_id": 0.5745454430580139, "_runtime": 11227.534090042114, "_step": 149, "_wandb": {"runtime": 11226}}